tree
version=v2
num_class=1
num_tree_per_iteration=1
label_index=0
max_feature_idx=304
objective=regression
feature_names=stations month day week hour foretimes psfc_M t2m_M q2m_M rh2m_M w10m_M d10m_M u10m_M v10m_M SWD_M GLW_M HFX_M LH_M RAIN_M PBLH_M TC975_M TC925_M TC850_M TC700_M TC500_M wspd975_M wspd925_M wspd850_M wspd700_M wspd500_M Q975_M Q925_M Q850_M Q700_M Q500_M psfc_M_x_x t2m_M_x_2d q2m_M_x_2d rh2m_M_x_2d w10m_M_x_2d d10m_M_x_2d u10m_M_x_2d v10m_M_x_2d SWD_M_x_2d GLW_M_x_2d HFX_M_x_2d LH_M_x_2d RAIN_M_x_2d PBLH_M_x_2d TC975_M_x_2d TC925_M_x_2d TC850_M_x_2d TC700_M_x_2d TC500_M_x_2d wspd975_M_x_2d wspd925_M_x_2d wspd850_M_x_2d wspd700_M_x_2d wspd500_M_x_2d Q975_M_x_2d Q925_M_x_2d Q850_M_x_2d Q700_M_x_2d Q500_M_x_2d psur_obs_x_2d t2m_obs_x_2d q2m_obs_x_2d w10m_obs_x_2d d10m_obs_x_2d rh2m_obs_x_2d u10m_obs_x_2d v10m_obs_x_2d RAIN_obs_x_2d t2m_obj_x_2d rh2m_obj_x_2d w10m_obj_x_2d psfc_M_y_2d t2m_M_y_2d q2m_M_y_2d rh2m_M_y_2d w10m_M_y_2d d10m_M_y_2d u10m_M_y_2d v10m_M_y_2d SWD_M_y_2d GLW_M_y_2d HFX_M_y_2d LH_M_y_2d RAIN_M_y_2d PBLH_M_y_2d TC975_M_y_2d TC925_M_y_2d TC850_M_y_2d TC700_M_y_2d TC500_M_y_2d wspd975_M_y_2d wspd925_M_y_2d wspd850_M_y_2d wspd700_M_y_2d wspd500_M_y_2d Q975_M_y_2d Q925_M_y_2d Q850_M_y_2d Q700_M_y_2d Q500_M_y_2d psur_obs_y_2d t2m_obs_y_2d q2m_obs_y_2d w10m_obs_y_2d d10m_obs_y_2d rh2m_obs_y_2d u10m_obs_y_2d v10m_obs_y_2d RAIN_obs_y_2d t2m_obj_y_2d rh2m_obj_y_2d w10m_obj_y_2d psfc_M_x_y t2m_M_x_7d q2m_M_x_7d rh2m_M_x_7d w10m_M_x_7d d10m_M_x_7d u10m_M_x_7d v10m_M_x_7d SWD_M_x_7d GLW_M_x_7d HFX_M_x_7d LH_M_x_7d RAIN_M_x_7d PBLH_M_x_7d TC975_M_x_7d TC925_M_x_7d TC850_M_x_7d TC700_M_x_7d TC500_M_x_7d wspd975_M_x_7d wspd925_M_x_7d wspd850_M_x_7d wspd700_M_x_7d wspd500_M_x_7d Q975_M_x_7d Q925_M_x_7d Q850_M_x_7d Q700_M_x_7d Q500_M_x_7d psur_obs_x_7d t2m_obs_x_7d q2m_obs_x_7d w10m_obs_x_7d d10m_obs_x_7d rh2m_obs_x_7d u10m_obs_x_7d v10m_obs_x_7d RAIN_obs_x_7d t2m_obj_x_7d rh2m_obj_x_7d w10m_obj_x_7d psfc_M_y_7d t2m_M_y_7d q2m_M_y_7d rh2m_M_y_7d w10m_M_y_7d d10m_M_y_7d u10m_M_y_7d v10m_M_y_7d SWD_M_y_7d GLW_M_y_7d HFX_M_y_7d LH_M_y_7d RAIN_M_y_7d PBLH_M_y_7d TC975_M_y_7d TC925_M_y_7d TC850_M_y_7d TC700_M_y_7d TC500_M_y_7d wspd975_M_y_7d wspd925_M_y_7d wspd850_M_y_7d wspd700_M_y_7d wspd500_M_y_7d Q975_M_y_7d Q925_M_y_7d Q850_M_y_7d Q700_M_y_7d Q500_M_y_7d psur_obs_y_7d t2m_obs_y_7d q2m_obs_y_7d w10m_obs_y_7d d10m_obs_y_7d rh2m_obs_y_7d u10m_obs_y_7d v10m_obs_y_7d RAIN_obs_y_7d t2m_obj_y_7d rh2m_obj_y_7d w10m_obj_y_7d psfc_M_x t2m_M_x_1y q2m_M_x_1y rh2m_M_x_1y w10m_M_x_1y d10m_M_x_1y u10m_M_x_1y v10m_M_x_1y SWD_M_x_1y GLW_M_x_1y HFX_M_x_1y LH_M_x_1y RAIN_M_x_1y PBLH_M_x_1y TC975_M_x_1y TC925_M_x_1y TC850_M_x_1y TC700_M_x_1y TC500_M_x_1y wspd975_M_x_1y wspd925_M_x_1y wspd850_M_x_1y wspd700_M_x_1y wspd500_M_x_1y Q975_M_x_1y Q925_M_x_1y Q850_M_x_1y Q700_M_x_1y Q500_M_x_1y psur_obs_x_1y t2m_obs_x_1y q2m_obs_x_1y w10m_obs_x_1y d10m_obs_x_1y rh2m_obs_x_1y u10m_obs_x_1y v10m_obs_x_1y RAIN_obs_x_1y t2m_obj_x_1y rh2m_obj_x_1y w10m_obj_x_1y psfc_M_y_1y t2m_M_y_1y q2m_M_y_1y rh2m_M_y_1y w10m_M_y_1y d10m_M_y_1y u10m_M_y_1y v10m_M_y_1y SWD_M_y_1y GLW_M_y_1y HFX_M_y_1y LH_M_y_1y RAIN_M_y_1y PBLH_M_y_1y TC975_M_y_1y TC925_M_y_1y TC850_M_y_1y TC700_M_y_1y TC500_M_y_1y wspd975_M_y_1y wspd925_M_y_1y wspd850_M_y_1y wspd700_M_y_1y wspd500_M_y_1y Q975_M_y_1y Q925_M_y_1y Q850_M_y_1y Q700_M_y_1y Q500_M_y_1y psur_obs_y_1y t2m_obs_y_1y q2m_obs_y_1y w10m_obs_y_1y d10m_obs_y_1y rh2m_obs_y_1y u10m_obs_y_1y v10m_obs_y_1y RAIN_obs_y_1y t2m_obj_y_1y rh2m_obj_y_1y w10m_obj_y_1y psur_obs_last24h t2m_obs_last24h q2m_obs_last24h w10m_obs_last24h rh2m_obs_last24h u10m_obs_last24h v10m_obs_last24h RAIN_obs_last24h psur_obs_last24h_stations_mean t2m_obs_last24h_stations_mean q2m_obs_last24h_stations_mean w10m_obs_last24h_stations_mean rh2m_obs_last24h_stations_mean u10m_obs_last24h_stations_mean v10m_obs_last24h_stations_mean RAIN_obs_last24h_stations_mean psur_obs_last24h_stations_std t2m_obs_last24h_stations_std q2m_obs_last24h_stations_std w10m_obs_last24h_stations_std rh2m_obs_last24h_stations_std u10m_obs_last24h_stations_std v10m_obs_last24h_stations_std RAIN_obs_last24h_stations_std
feature_infos=4:7:6:2:8:1:0:5:9:3 4:2:6:3:7:5:8:9:0:11:10:1 9:0:20:19:8:5:13:14:27:10:7:26:15:1:4:18:23:22:3:21:6:24:11:25:12:16:2:17:28:29:30 9:18:16:12:19:13:22:24:14:20:26:10:25:36:37:30:11:33:15:27:31:29:35:38:17:23:32:21:28:8:34:39:2:5:7:50:6:1:48:4:0:42:44:49:47:43:45:3:51:40:41:46 7:9:8:10:11:13:15:12:14:5:2:4:6:3:1:0:23:20:16:19:18:17:22:21 28:26:30:4:23:25:5:29:27:6:7:31:8:24:22:32:21:34:10:33:12:36:9:11:35:20:17:13:16:15:14:19:18 [912.77099999999996:1039.3979999999999] [-34.207000000000001:41.554000000000002] [0.0092297809999999994:23.330936000000001] [0:100] [0:17.416] 157:194:156:212:160:155:208:204:211:209:203:205:200:210:158:216:159:202:198:161:215:197:195:207:206:201:217:164:213:191:214:199:190:193:189:154:162:163:152:165:192:153:166:151:187:179:170:196:172:184:149:188:186:168:185:169:150:218:183:171:219:178:167:146:181:143:175:177:147:326:328:327:220:148:330:180:173:176:222:145:142:236:182:223:334:231:329:324:140:221:174:144:226:333:332:337:237:227:235:228:141:239:234:325:336:229:344:321:233:322:339:323:224:331:343:341:238:115:225:338:135:241:246:230:125:342:130:335:345:242:232:348:319:131:139:124:129:340:127:117:240:123:320:349:346:119:134:122:138:133:128:136:114:126:120:347:59:318:116:112:137:56:118:60:121:243:108:53:132:316:244:245:247:250:317:84:109:58:111:110:113:105:106:85:350:249:82:55:107:64:63:48:83:88:36:314:351:81:49:40:61:91:102:34:65:45:251:248:62:50:254:57:46:47:30:68:24:255:79:38:41:103:32:54:313:26:25:43:259:89:73:310:51:52:312:80:67:256:315:35:28:66:44:87:92:101:31:74:77:69:39:309:71:33:262:104:90:257:252:98:20:27:95:352:29:76:308:86:97:261:21:75:22:37:258:23:72:295:17:42:93:94:260:70:304:78:298:311:100:305:19:263:296:253:292:297:300:267:264:303:299:18:353:291:96:99:16:266:294:265:306:290:271:284:287:302:293:307:301:275:281:279:268:269:277:289:288:15:286:285:354:272:12:283:274:276:280:13:270:278:14:282:273:11:10:9:355 [-11.983601:15.198629] [-12.139129000000001:10.651897999999999] [0:1057.2180000000001] [0:510.471] [-209.94499999999999:575.35699999999997] [-16.573:539.16300000000001] [-58.981499999999997:357.70400000000001] [0:6203.6300000000001] [-221.28100000000001:39.493000000000002] [-221.381:35.347000000000001] [-221.535:29.256] [-221.83600000000001:17.010999999999999] [-222.24299999999999:1.9450000000000001] [0.084000000000000005:78.971000000000004] [0.13200000000000001:45.558] [0.16300000000000001:34.133000000000003] [0.221:34.193000000000005] [0.125:55.548000000000002] [0:22.402000000000001] [0:21.696999999999999] [0:20.545000000000002] [0:14.704000000000001] [0:8.052999999999999] [912.77099999999996:1039.2860000000001] [-273.14999999999998:78.408000000000001] [1.8484368999999999e-20:347.9622] [0:100.09999999999999] [0:15.089] 157:0:160:208:156:212:158:194:210:203:155:209:211:214:204:159:216:195:206:200:213:198:154:215:217:207:193:202:205:197:161:164:199:201:162:191:189:153:163:188:190:152:177:196:167:192:185:149:165:151:166:169:186:187:183:168:219:184:179:170:150:218:172:175:220:148:144:181:178:176:223:180:146:329:174:171:147:173:324:328:326:221:182:330:327:226:143:333:222:142:235:334:225:337:332:236:145:325:322:339:140:344:227:342:141:323:229:237:234:331:233:224:239:115:228:338:336:130:321:242:241:240:319:230:335:232:231:238:320:134:123:345:341:120:348:138:343:139:127:124:135:136:340:131:318:108:117:246:126:317:243:119:118:59:122:137:346:110:129:347:316:125:121:128:133:112:116:114:106:111:244:56:109:245:113:247:82:55:350:58:132:32:105:84:91:85:349:83:53:34:65:60:48:57:251:45:248:46:107:40:314:44:250:66:313:74:103:61:39:24:51:351:81:80:67:28:47:309:38:50:254:92:49:54:36:249:41:35:68:64:312:79:87:259:63:252:310:86:52:25:29:255:69:37:102:89:104:78:31:93:62:43:42:88:30:101:315:98:75:77:71:97:90:73:261:260:253:257:26:262:256:305:297:21:292:311:76:264:100:263:27:99:95:72:307:303:295:33:298:19:96:258:94:293:352:18:294:20:291:16:22:70:296:299:300:304:308:268:17:306:271:353:288:301:281:23:267:265:275:286:269:277:287:279:14:290:302:15:284:272:285:289:266:270:283:280:282:276:274:354:13:273:278:12:11:10:8:9 [-11.983601:13.107307999999998] [-12.067466:10.651897999999999] [0:1042.8420000000001] [0:504.154] [-209.94499999999999:575.35699999999997] [-15.087999999999999:539.16300000000001] [-58.981499999999997:357.70400000000001] [0:6203.6300000000001] [-234.547:39.493000000000002] [-234.55699999999999:35.134999999999998] [-234.577:29.256] [-234.61699999999999:26.821999999999999] [-234.66999999999999:26.821999999999999] [0.084000000000000005:78.971000000000004] [0.14000000000000001:45.558] [0.16300000000000001:33.835999999999999] [0.224:34.193000000000005] [0.28000000000000003:55.548000000000002] [0:356.49900000000002] [0:356.49900000000002] [0:356.49900000000002] [0:356.49900000000002] [0:356.49900000000002] [861.39999999999998:1039.2] [-24:39.899999999999999] [0.19747049999999999:25.443390000000001] [0.10000000000000001:19.600000000000001] 58:0:62:1:55:50:54:60:56:207:57:178:47:196:67:61:203:194:53:201:186:171:215:71:24:160:64:189:210:219:202:191:195:184:180:66:200:175:176:172:65:51:45:26:68:169:70:72:73:209:32:43:205:63:37:59:211:44:198:52:46:28:162:42:76:232:74:204:217:16:312:173:161:167:206:188:177:174:213:49:69:229:166:227:190:193:224:212:48:336:220:218:225:165:249:197:33:216:226:40:168:208:19:332:214:241:222:199:154:164:38:187:159:310:163:183:230:35:333:228:81:221:233:179:21:77:39:158:223:31:181:80:338:353:315:79:345:339:314:329:85:78:346:15:75:311:192:234:327:254:170:34:30:308:244:41:155:352:317:247:349:185:344:182:94:13:84:307:88:239:331:18:153:150:340:343:354:36:328:313:92:91:326:82:330:235:357:316:231:149:236:151:157:7:355:360:351:256:350:324:348:358:305:342:237:303:148:309:319:306:321:337:156:341:8:152:335:334:97:95:87:83:22:106:86:322:320:347:9:89:90:238:325:356:318:246:240:144:3:12:100:5:251:323:23:359:147:103:29:4:304:243:248:20:2:300:99:14:139:105:252:302:25:11:145:10:108:109:259:242:301:146:111:142:27:143:296:266:140:260:121:253:258:297:250:245:6:255:141:299:262:264:293:289:291:263:102:298:282:270:107:290:110:128:295:280:261:279:267:115:292:101:98:269:286:294:96:265:123:135:114:257:119:131:132:138:122:133:126:125:112:272:17:136:281:104:268:271:287:120:274:118:116:278:276:130:288:285:137:284:283:127:134:93:117:275 [4:100] [-22.376740000000002:13.13659] [-14.14326:10.9975] [0:64.700000000000003] [-52.508000000000003:302.04999999999995] [-88:87.421999999999997] [-13.339:12.233000000000001] [962.43399999999986:1005.5761] [-273.09539999999998:38.055899999999994] [0.000199789821836218:293.68074476328002] [0:99.97999999999999] [0:12.2744] 156:154:150:160:148:159:152:146:163:144:149:157:161:155:145:147:167:153:165:166:143:158:164:137:151:168:138:142:170:162:140:172:169:139:141:176:171:133:174:134:136:173:175:135:130:128:177:131:129:132:179:127:181:178:182:124:125:184:126:183:180:0:188:121:185:115:120:123:190:122:119:194:186:187:116:118:193:113:196:189:112:111:106:107:192:114:200:199:191:207:110:195:117:222:197:210:198:208:203:109:218:108:209:204:205:211:206:221:201:214:104:223:215:202:228:212:101:231:100:229:103:238:216:226:227:105:230:97:217:224:220:233:234:99:225:219:91:98:96:242:235:102:239:251:94:244:257:213:92:240:243:232:259:248:245:241:252:254:84:95:246:237:261:260:256:236:280:275:266:90:263:87:85:76:93:255:278:267:89:250:258:253:288:269:81:296:265:293:247:292:268:249:68:316:298:71:78:77:284:83:287:72:264:295:281:273:65:86:79:82:270:317:294:73:299:61:74:54:291:50:286:306:283:271:285:88:49:301:53:262:290:272:318:289:60:67:277:309:282:75:69:57:311:66:276:321:310:274:304:80:312:300:279:52:308:315:70:64:313:63:40:297:43:58:47:41:62:39:314:48:307:55:32:45:303:59:51:44:319:42:305:302:323:33:38:320:325:56:34 [-5.1249961240000008:9.864230199999998] [-7.8093758400000013:7.7436638999999996] [0:1027.8096] [0:467.51599999999996] [-61.621200000000002:489.02970000000005] [-5.0636999999999999:385.56229999999999] [-21.645299999999999:333.92099999999999] [0:4622.3718000000008] [-193.45771428571427:37.677500000000002] [-200.52960000000002:33.589000000000006] [-200.68350000000001:27.018799999999999] [-200.99260000000001:26.321099999999994] [-201.40280000000001:26.321099999999994] [1.0356999999999998:35.187400000000004] [0.96939999999999993:22.355799999999995] [0.99900000000000022:26.613800000000005] [0.86769999999999992:30.978499999999997] [0.84360000000000002:52.238599999999998] [0:34554.379999999997] [0:34554.379999999997] [0:34554.379999999997] [0:34554.379999999997] [0:34554.379999999997] [937.29999999999995:1031.0999999999999] [-16.949999999999999:37.700000000000003] [0.24443287777777783:22.208615000000002] [0.62857142857142845:7.6800000000000015] 144:140:142:148:138:136:150:139:126:124:154:134:146:130:132:128:0:156:133:152:135:137:120:147:129:145:158:143:131:141:127:122:114:157:116:118:125:162:160:151:149:155:121:110:115:153:164:108:166:113:161:112:119:123:159:168:117:98:163:167:111:102:107:106:104:170:109:172:103:96:176:97:95:169:105:100:171:165:94:99:92:173:177:90:178:91:93:101:86:88:174:179:181:84:182:175:87:184:180:183:89:81:185:83:190:85:196:79:82:186:74:188:76:198:80:187:202:78:77:189:191:192:197:193:194:70:201:73:72:195:220:199:216:203:214:66:64:204:200:206:210:75:71:62:69:56:67:68:218:205:208:207:209:54:58:217:211:232:60:229:65:231:222:57:55:233:59:226:228:213:212:61:227:63:47:223:252:225:230:224:215:51:50:53:219:40:42:48:241:44:242:243:235:237:236:45:234:245:221:46:244:257:254:240:52:256:239:253:238:248:246:41:38:265:49:266:36:250:247:251:255:281:37:263:259:273:275:262:261:289:43:35:39:268:20:270:260:274:32:264:29:258:33:34:288:249:30:280:295:267:276:286:272:28:27 [6.2000000000000002:97.5] [-4.2486374000000007:5.5873746999999998] [-5.9787705000000004:5.5231422999999991] [0:14.65] [-9.3943000000000012:282.29540000000003] [-85.079999999999998:56.373599999999996] [-6.4767999999999999:3.0158] [912.77099999999996:1039.3979999999999] [-273.14999999999998:99.825999999999993] [8.3353753999999999e-14:1120.1874] [0:100.09999999999999] [0:15.089] 156:0:155:211:200:210:157:208:212:204:203:209:194:205:214:213:161:206:201:160:198:216:207:202:159:197:215:199:164:195:154:158:217:192:162:190:193:163:186:191:189:151:153:188:152:179:168:167:218:166:187:165:177:196:172:169:170:183:149:219:178:184:148:171:146:185:175:220:180:150:324:143:142:176:328:221:147:223:330:182:327:181:226:144:237:228:173:174:336:326:325:329:227:239:225:222:337:334:235:331:229:321:236:339:234:343:231:332:333:145:115:344:123:141:323:230:241:233:238:342:130:340:322:232:140:319:320:224:338:345:341:335:240:124:120:134:119:117:246:135:318:347:137:133:139:242:346:125:127:129:122:136:348:108:131:121:138:128:132:59:112:84:349:350:109:317:245:114:85:118:126:105:106:116:111:53:113:250:244:243:58:316:57:60:48:247:34:314:91:82:110:36:55:81:56:35:61:103:64:254:39:83:251:255:95:24:249:50:47:49:41:89:51:88:28:38:32:68:40:74:54:310:313:31:248:45:65:252:46:71:26:107:351:77:104:87:27:102:259:312:66:67:44:25:292:315:69:92:79:101:90:72:52:78:73:42:264:37:86:22:62:43:309:311:98:256:80:30:257:97:29:262:76:263:75:19:17:99:93:261:305:94:21:33:253:260:258:304:299:18:20:63:296:96:23:298:352:297:293:100:265:308:70:303:291:295:267:302:277:353:306:294:301:287:307:16:300:284:269:268:281:290:266:271:275:288:285:279:274:286:280:14:289:282:276:12:354:270:15:283:278:272:13:11:273:355:9:8 [-11.983601:13.107307999999998] [-12.139129000000001:10.651897999999999] [0:1057.2180000000001] [0:503.88600000000002] [-162.614:575.35699999999997] [-16.573:539.16300000000001] [-58.981499999999997:357.70400000000001] [0:6203.6300000000001] [-234.547:39.493000000000002] [-234.55699999999999:35.347000000000001] [-234.577:29.088999999999999] [-234.61699999999999:26.922000000000001] [-234.66999999999999:26.922000000000001] [0.10299999999999999:77.516999999999996] [0.13200000000000001:44.326000000000001] [0.16300000000000001:34.133000000000003] [0.224:34.193000000000005] [0.23000000000000001:55.548000000000002] [0:358.149] [0:358.149] [0:358.149] [0:358.149] [0:358.149] [861.39999999999998:1038.3] [-24:39.899999999999999] [0.19747049999999999:25.443390000000001] [0.10000000000000001:19.600000000000001] 58:0:1:62:55:60:50:207:56:54:67:203:178:47:61:57:66:70:53:26:52:215:71:210:209:171:180:172:160:24:64:201:59:196:188:202:65:219:51:220:63:19:174:74:169:198:73:186:200:184:217:44:37:195:312:175:42:162:32:189:68:49:205:43:199:48:69:176:191:194:28:193:229:213:211:225:16:222:72:212:206:190:168:197:45:161:167:165:204:249:154:76:38:46:332:227:214:177:241:80:81:226:216:33:208:21:221:223:230:173:40:166:155:163:179:183:336:78:35:39:333:79:187:244:327:192:153:353:232:339:218:159:181:224:239:310:326:354:338:329:233:158:170:254:228:164:77:234:352:89:345:315:346:31:185:314:349:317:356:84:75:311:30:94:344:331:237:97:307:355:256:85:15:330:247:308:88:22:351:82:231:324:150:320:313:41:7:13:341:305:309:316:236:360:91:157:350:156:235:34:334:335:238:303:86:252:148:319:306:90:147:340:152:36:92:337:358:348:318:95:29:3:83:357:325:23:18:321:151:87:343:243:9:342:322:106:323:328:246:149:2:182:12:248:359:11:8:4:251:103:347:100:139:99:14:146:25:302:144:300:240:105:304:109:10:108:264:143:301:27:253:250:145:259:141:245:20:5:266:296:102:111:260:297:242:263:298:258:140:142:255:295:96:6:110:291:121:267:286:128:119:138:262:299:292:257:280:294:122:261:282:290:112:279:132:289:98:126:17:135:115:133:120:287:137:265:272:269:131:288:276:278:281:107:101:284:104:93:270:271:273:268:274:275:134:283:116:127:136:285:130:114:293:123:125:124 [4:100] [-22.376740000000002:15.29853] [-14.14326:10.9975] [0:75.799999999999997] [-79.425999999999988:300.25] [-88.900000000000006:87.421999999999997] [-13.339:14.140000000000001] [962.43399999999986:1005.7375] [-273.09539999999998:38.055899999999994] [0.000199789821836218:293.68074476328002] [0:99.97999999999999] [0:12.2744] 154:156:148:150:152:160:159:163:144:146:149:155:161:153:157:167:143:147:166:145:142:165:151:158:138:170:164:137:140:162:172:139:141:168:169:176:171:136:174:175:173:133:134:135:130:177:132:131:128:129:181:179:182:127:178:124:125:184:126:183:180:0:185:188:121:190:120:123:186:122:187:115:119:113:194:118:189:116:192:193:196:111:200:114:112:195:107:210:207:110:222:106:197:198:199:117:208:203:191:109:201:211:205:206:108:204:209:218:221:104:214:202:223:229:215:238:103:228:101:105:100:212:231:226:233:230:216:227:224:97:234:235:225:220:217:91:219:102:99:96:242:251:244:98:213:92:243:239:256:245:94:257:240:259:252:254:248:232:236:261:260:237:84:89:95:241:246:87:93:255:258:269:85:90:275:250:267:263:293:253:280:266:76:81:292:268:278:298:316:288:83:72:65:265:287:78:264:247:284:281:77:68:249:71:295:82:296:283:86:273:294:318:290:61:301:317:306:289:88:73:272:79:270:291:285:309:60:54:50:299:57:74:277:262:75:311:67:282:271:80:66:53:286:310:49:52:321:308:70:276:69:279:312:63:40:313:43:274:300:64:315:304:59:58:297:44:32:39:48:47:314:305:41:55:62:307:45:51:303:42:302:319:38:34:323:56:33:322:35 [-5.1249961240000008:9.864230199999998] [-7.8093758400000013:7.7436638999999996] [0:1038.1657] [0:467.51599999999996] [-61.621200000000002:489.02970000000005] [-5.0636999999999999:385.56229999999999] [-21.645299999999999:333.92099999999999] [0:4622.3718000000008] [-193.45771428571427:37.677500000000002] [-200.52960000000002:33.589000000000006] [-200.68350000000001:27.018799999999999] [-200.99260000000001:26.321099999999994] [-201.40280000000001:26.321099999999994] [1.0356999999999998:35.187400000000004] [0.92090000000000016:22.355799999999995] [0.99900000000000022:25.081599999999998] [0.86769999999999992:31.056100000000004] [0.84360000000000002:52.238599999999998] [0:34554.379999999997] [0:34554.379999999997] [0:34554.379999999997] [0:34554.379999999997] [0:34554.379999999997] [937.29999999999995:1031.0999999999999] [-16.949999999999999:37.700000000000003] [0.24443287777777783:22.208615000000002] [0.67500000000000004:7.6800000000000015] 140:144:142:136:0:148:124:130:128:150:134:154:138:126:146:132:139:145:152:156:133:120:137:143:141:135:147:158:131:129:122:127:157:114:116:151:118:149:162:125:160:121:155:153:110:108:164:166:115:113:117:161:112:119:123:159:168:98:163:167:106:102:107:111:104:172:109:170:169:103:100:96:171:99:176:165:105:95:90:92:97:94:173:91:93:178:177:86:88:174:101:181:182:84:87:184:180:179:175:81:89:183:185:83:85:82:196:186:79:190:188:198:80:74:202:189:78:187:76:77:191:70:193:192:194:197:73:201:72:195:64:66:214:203:199:200:216:204:220:75:56:69:68:210:208:62:205:67:218:71:209:206:58:207:232:65:217:229:211:222:54:60:59:226:55:231:212:228:233:213:57:63:61:47:227:223:219:230:225:224:237:215:252:51:235:53:40:241:242:48:44:50:243:42:236:46:234:45:221:257:240:245:254:52:256:244:239:253:246:49:238:38:265:248:41:36:251:266:37:255:250:261:281:247:262:259:20:268:289:275:270:263:273:39:260:33:258:43:32:264:35:29:249:286:34:28:274:288:276:267:280:30:295:23:279 [6.2000000000000002:97.5] [-4.2486374000000007:5.5873746999999998] [-5.9787705000000004:5.5231422999999991] [0:14.65] [-9.3943000000000012:282.29540000000003] [-85.079999999999998:56.373599999999996] [-6.4767999999999999:3.0158] [908.22299999999996:1043.0930000000001] [-273.423:99.825999999999993] [1.8484368999999999e-20:1120.1874] [0:100.09999999999999] [0:15.856] 211:0:213:208:209:210:194:207:212:216:205:204:214:206:156:197:160:198:217:155:158:164:201:202:159:200:191:203:215:162:195:157:193:161:192:185:196:324:187:154:328:199:190:326:186:189:188:329:321:327:320:334:184:163:180:325:183:333:153:169:342:165:332:147:219:152:151:181:168:170:322:223:172:167:323:218:220:177:227:173:178:149:179:236:226:336:331:233:330:235:234:339:176:166:150:335:239:225:337:175:148:182:228:319:237:341:231:343:344:224:143:340:338:318:241:146:174:171:346:145:345:142:222:144:229:242:348:317:316:230:240:232:141:138:221:349:140:108:238:139:244:243:245:247:123:126:117:315:347:124:114:314:59:134:121:246:125:116:250:115:129:130:120:127:112:137:40:31:60:57:84:350:135:26:83:248:128:136:109:132:119:133:313:53:255:111:28:351:85:58:79:24:310:311:34:41:35:122:30:82:55:56:50:38:65:102:131:110:118:61:249:103:252:27:66:43:33:81:45:36:39:256:259:25:49:312:260:302:262:113:107:29:254:52:21:258:51:62:74:257:32:48:91:296:307:101:253:69:87:73:105:46:309:104:251:301:68:44:261:299:42:100:89:63:99:294:64:300:298:88:86:54:71:37:304:93:97:22:80:70:75:98:17:77:72:76:303:266:47:95:67:306:267:295:23:90:292:16:263:271:106:78:352:265:92:305:297:308:268:264:353:20:289:275:96:284:19:94:293:282:276:281:277:288:291:283:18:269:274:279:15:280:290:354:272:14:270:287:285:286:278:13:273:12:11:355:10:8 [-11.983601:13.294771000000001] [-12.067466:10.528314999999999] [0:1048.8879999999999] [0:499.78500000000003] [-209.94499999999999:575.35699999999997] [-16.573:539.16300000000001] [-58.981499999999997:354.464] [0:5272.4540000000015] [-221.28100000000001:38.901000000000003] [-230.077:35.033999999999999] [-230.47:29.256] [-231.255:26.922000000000001] [-232.29499999999999:26.922000000000001] [0.084000000000000005:76.496000000000024] [0.13200000000000001:44.243000000000002] [0.16500000000000001:36.234000000000002] [0.17999999999999999:35.173999999999999] [0.22:52.706000000000003] [0:345543.79999999999] [0:345543.79999999999] [0:345543.79999999999] [0:345543.79999999999] [0:345543.79999999999] [858.89999999999998:1042.8] [-29.800000000000001:39.899999999999999] [0.1413151:24.114450000000001] [0.29999999999999999:19.600000000000001] 58:0:62:55:50:60:61:54:65:56:57:67:71:196:201:66:47:171:64:52:73:68:203:44:207:172:80:76:63:160:59:35:312:53:74:198:72:194:81:213:45:51:210:180:24:178:49:46:79:220:209:214:215:42:70:48:69:166:199:32:19:43:40:167:28:219:161:310:195:229:200:315:184:202:37:225:197:326:317:186:39:332:94:205:176:204:218:232:21:217:78:169:222:212:154:191:314:233:190:175:336:153:168:249:163:30:38:170:216:188:244:189:164:16:329:8:26:241:84:228:305:254:33:83:346:211:342:355:158:165:150:162:237:307:339:88:239:230:77:334:308:304:181:318:152:352:247:31:75:177:353:226:311:224:337:179:227:325:187:350:221:155:86:256:97:327:234:344:193:13:174:333:320:338:208:223:91:82:331:15:309:34:18:345:340:159:341:357:22:316:319:7:349:354:313:192:41:351:173:231:235:240:302:85:146:356:148:252:156:360:343:36:238:303:300:92:335:3:358:348:99:183:328:251:248:182:206:89:323:90:4:321:359:236:87:149:5:95:296:242:144:11:2:10:106:330:14:157:100:147:243:29:246:322:324:98:185:9:306:142:151:103:266:253:143:105:23:260:245:261:12:138:141:347:27:255:292:291:145:294:293:297:250:259:139:258:262:267:295:20:290:286:265:1:289:273:108:109:6:287:25:298:264:268:301:263:140:107:279:280:282:299:275:272:96:111:284:102:121:288:257:276:135:119:269:271:104:110:112:93:134:114:285:128:101:118:125:133:137:281:274:131:277:132:278:122:136:120:126:270:283:130:115:123:116:113 [3:100] [-22.376740000000002:15.29853] [-14.021179999999999:14.09539] [0:63.399999999999999] [-79.425999999999988:306.34999999999997] [-88.900000000000006:77.093000000000004] [-12.944000000000001:13.768000000000001] [957.77889999999991:1007.8843999999999] [-273.09539999999998:38.002000000000002] [0.000199789821836218:293.68074476328002] [0:99.97999999999999] [0:12.2744] 161:0:146:170:150:152:149:163:154:144:147:148:158:155:156:165:159:153:162:151:160:141:137:166:157:145:167:143:168:169:164:171:172:142:136:138:140:175:139:173:174:176:134:133:177:135:130:179:178:182:131:132:183:180:129:181:188:184:185:124:128:127:186:190:126:189:125:196:194:187:120:121:114:119:197:122:202:193:195:118:191:201:207:111:115:198:208:116:200:192:117:199:203:204:225:209:123:112:210:107:113:206:110:211:205:106:226:221:218:108:214:235:233:222:215:228:231:109:104:227:216:223:101:100:217:102:238:103:220:213:212:244:230:105:219:240:224:234:251:91:252:98:236:232:97:239:99:229:94:256:242:248:255:243:92:245:241:96:254:261:249:275:259:250:258:257:237:269:267:82:263:95:84:93:260:77:264:246:81:265:295:253:90:74:283:284:278:86:79:88:72:247:266:296:87:68:78:272:89:268:290:273:298:286:270:299:294:291:281:311:288:65:71:312:282:83:64:280:76:75:262:60:287:66:306:85:279:274:292:50:304:73:277:54:316:58:57:289:317:271:293:308:310:318:61:285:49:43:62:303:309:51:305:300:80:321:48:70:297:69:44:59:314:39:313:38:53:67:307:276:302:63:40:55:52:301:315:45:319:41:56:35:32:36:42:47 [-4.8487461800000009:9.864230199999998] [-7.8093758400000013:7.7436638999999996] [0:1031.6837] [0:467.51599999999996] [-73.543300000000002:489.02970000000005] [-5.0636999999999999:385.56229999999999] [-21.645299999999999:333.92099999999999] [0:4622.3718000000008] [-193.45771428571427:37.641800000000003] [-200.52960000000002:33.5137] [-200.68350000000001:27.018799999999999] [-200.99260000000001:26.321099999999994] [-201.40280000000001:26.321099999999994] [1.0356999999999998:34.009500000000003] [0.92090000000000016:30.5166] [0.79730000000000001:30.5166] [0.80930000000000002:31.056100000000004] [0.80090000000000006:48.122] [0:34554.379999999997] [0:34554.379999999997] [0:34554.379999999997] [0:34554.379999999997] [0:34554.379999999997] [937.29999999999995:1031.0999999999999] [-19.390000000000001:37.700000000000003] [0.18722275000000002:22.208615000000002] [0.60000000000000009:7.580000000000001] 143:0:137:141:133:135:139:153:155:129:131:127:136:138:147:140:123:142:159:146:130:145:148:156:157:149:144:151:163:115:128:119:125:134:121:113:161:152:117:132:154:120:150:126:158:165:109:160:111:105:167:116:124:122:169:107:118:162:170:112:114:101:110:171:97:164:106:168:166:173:172:103:104:99:108:175:89:102:98:176:95:93:100:92:96:87:94:90:178:179:91:83:180:189:85:177:181:193:80:174:183:185:184:187:88:182:77:86:73:82:191:84:196:197:78:79:76:75:201:81:195:192:190:186:188:71:200:69:65:66:215:194:63:198:203:72:199:204:213:68:74:205:67:61:202:207:211:208:55:70:216:209:226:64:57:230:219:59:222:227:217:231:232:62:221:206:225:223:58:56:228:224:60:229:49:214:52:212:218:53:220:54:245:44:234:210:48:50:233:47:241:253:244:239:240:46:238:251:236:43:51:39:237:45:235:35:243:255:248:242:40:42:41:247:261:264:249:37:246:260:254:259:36:33:252:28:265:250:34:38:27:258:273:267:21:262:256:276:29:272:32:266:287:283:26:275:31:269:281:278:270:18:257:9:10 [5.5999999999999996:97.400000000000006] [-4.2486374000000007:5.3506689000000005] [-5.4674700599999992:5.5231422999999991] [0:14.65] [-9.3943000000000012:303.1354] [-85.079999999999998:54.954900000000009] [-8.0792000000000002:3.5444444444444443] [962.86208333333309:1002.7016666666669] [-12.252916666666666:29.90749999999997] [0.37768208750000021:21.198762916666666] [1.0666666666666664:4.4807860262008763] [11.25:94.591666666666669] [-2.2043061162394957:2.6269817760157301] [-3.3238193772713402:2.5837944674201667] [0:4.0375000000000023] none none none none none none none none none none none none none none none none
tree_sizes=2495 2531 2648 2615 2626 2630 2544 2524 2607 2641 2588 2670 2711 2509 2632 2566 2597 2513 2636 2581 2579 2534 2558 2587 2703 2779 2601 2556 2824 2572 2629 2564 2814 2703 2775 2564 2572 2554 2792 2575 2533 2762 2660 2660 2805 2856 3068 3070 2999 3017 2593 2695 3307 3056 3018 2914 3281 3083 3159 2914 2641 3190 3318 2979 3066 2688 3283 3057 2941 3226 3304 2841 3075 3337 3481 3222 3441 3291 2841 3400 3289 3480 3394 3214 3497 3330 3599 3719 3369 3229 3345 3546 3666 3638 3749 3544 3406 3515 3601 3587 3660 3778 3774 3399 3870 3799 3728 3694 4020 4030 3673 3543 3441 3797 3801 3908 3544 3997 3990 3760 3983 3777 3917 4098 4224 3778 3590 3997 3647 3397 3966 3737 4039 3996 3688 4199 3978 4220 3890 3919 3944 4106 4155 4034 3782 4187 3801 4467 3925 4291 4384 4168 4146 4158 3921 4062 4348 4199 4201 4313 4272 4390 4133 4405 4358 4256 4475 4485 4022 4068 4367 3926 4457 4208 4032 4272 4430 4198 4299 4116 4082 4370 4569 4190 4343 4149 3669 4257 4515 3801 4289 4352 4065 4393 4384 4504 4513 4581 4340 4523 4328 4170 4401 4531 4548 4190 4278 4302 4037 4563 4196 4118 4218 4015 3847 4310 3521 3890 3993 4372 4285 4582 4708 4742 4141 4136 4477 4034 4467 4442 4185 4154 4521 4388 4791 4508 4773 4092 4475 4621 4300 4541 4554 4745 4752 4786 4400 4836 4487 4364 4191 4396 4516 4441 4124 4443 4735 4761 4565 4669 4473 4571 4752 4275 4861 4300 4447 4561 4319 4709 4584 4214 4747 4526 4486 4188 4456 4880 4713 4476 4256 4518 4141 4347 3961 4190 4237 4465 4533 4550 4864 4571 4773 4450 4417 4518 4538 4393 4607 4804 4694 4394 4820 4321 4422 4384 4628 4795 4522 4251 4248 4556 4244 4314 4243 4737 4347

Tree=0
num_leaves=31
num_cat=14
split_feature=10 0 0 10 10 10 5 166 10 10 0 10 5 10 5 5 5 231 31 0 10 13 10 3 0 0 10 0 10 0
split_gain=171456 33216.6 30258.7 25051.7 22628.9 11298.5 6592.15 4664.4 4621.24 4611.21 4039.64 3400.92 3178.11 3016.15 2862.9 2821.98 2423.04 2145.56 1598.41 1582.95 1546.37 1183.5 1155.43 1120.96 1088.76 1080.63 991.995 977.329 964.506 963.699
threshold=3.0395000000000008 0 1 1.5275000000000001 5.392500000000001 5.6115000000000022 2 32.882100000000001 4.0185000000000004 7.7735000000000012 3 2.2285000000000008 4 0.88250000000000017 5 6 7 3.4500000000000006 2.4715000000000003 8 4.158500000000001 -6.4086384499999998 2.0985000000000009 9 10 11 1.8925000000000003 12 4.2705000000000011 13
decision_type=2 1 1 2 2 2 1 8 2 2 1 2 1 2 1 1 1 10 2 1 2 2 2 1 1 1 2 1 2 1
left_child=2 5 7 12 8 17 10 18 16 14 23 24 -4 -14 27 29 -3 20 -1 -13 -2 -7 -12 -5 -8 -15 -9 -6 -19 -10
right_child=1 4 3 6 9 21 11 26 15 -11 22 19 13 25 -16 -17 -18 28 -20 -21 -22 -23 -24 -25 -26 -27 -28 -29 -30 -31
leaf_value=-0.31510920949918253 -0.40285749068052018 -0.42022577213006401 -0.35912533310648248 -0.36655929481101412 -0.48658416216382133 -0.47921715879408805 -0.39244577275957954 -0.34897003581299824 -0.4549563200265111 -0.53569434419664808 -0.38853958603808997 -0.42820688620827541 -0.36885712619055072 -0.37720382473283176 -0.50234464824660263 -0.46750701640272962 -0.441524939700639 -0.38367386436424444 -0.34031759406799933 -0.40981788904484562 -0.42243775441631654 -0.44228594367451896 -0.40386109750505927 -0.38380870875922202 -0.40521009777446082 -0.3881226499397426 -0.37914121930678057 -0.45868139647938116 -0.40311935209584482 -0.43404436748984793
leaf_count=4704 9051 8970 11149 5933 1852 896 11574 1724 3282 1717 7307 6402 25284 16446 3890 7205 10531 5124 4364 12392 6061 6082 11250 8105 12500 16388 2275 3753 4159 5497
internal_value=0 -1.21251 0.599327 0.46762 -1.74704 -0.416194 0.0690538 2.05618 -1.35612 -2.98584 0.407932 -0.188666 0.901906 0.807567 -2.71313 -1.75473 -1.02941 -0.0953697 2.45452 -0.507494 -0.327805 -1.53839 0.101556 0.812574 0.0601567 0.607797 1.15807 -2.23869 0.283018 -1.36795
internal_count=235867 78070 157797 144730 46697 31373 75463 13067 35485 11212 32595 42868 69267 58118 9495 15984 19501 24395 9068 18794 15112 6978 18557 14038 24074 32834 3999 5605 9283 8779
cat_boundaries=0 1 2 4 5 6 7 8 9 10 12 13 14 15 16
cat_threshold=452 128 4278190576 1 836 2113929328 2139095280 4286578928 4278190320 552 100401130 65536 340 340 40 40
shrinkage=1


Tree=1
num_leaves=31
num_cat=13
split_feature=10 0 0 10 10 10 4 16 10 4 10 0 10 4 0 4 10 149 24 4 10 0 10 11 10 10 0 0 27 10
split_gain=161351 31080.8 28581 24072.7 20945.5 10504.8 5907.08 5122.78 4337.39 4319.85 3972.36 3646.06 2738.6 2646.65 2492.73 2416.38 2074.12 1993.39 1701.56 1600.9 1343.2 1289.29 1243.45 1224.02 1003.17 993.598 982.302 954.752 931.452 888.567
threshold=3.0625000000000004 0 1 1.6675000000000002 5.392500000000001 5.6115000000000022 2 1.7515000000000001 7.7735000000000012 3 1.0395000000000001 4 4.0185000000000004 5 6 7 4.0525000000000011 3.3500000000000001 -16.479499999999998 8 4.158500000000001 9 2.2625000000000006 10 2.2795000000000001 8.168000000000001 11 12 11.5265 4.2705000000000011
decision_type=2 1 1 2 2 2 1 2 2 1 2 1 2 1 1 1 2 10 10 1 2 1 2 5 2 2 1 1 2 2
left_child=2 5 7 10 9 17 11 18 13 16 19 -5 -11 26 24 -12 -3 20 28 -4 -2 -13 -16 -7 -8 -25 -6 -17 -1 -19
right_child=1 4 3 6 8 23 14 -9 -10 12 15 21 -14 -15 22 27 -18 29 -20 -21 -22 -23 -24 25 -26 -27 -28 -29 -30 -31
leaf_value=0.075671510004157089 -0.0022929117660605083 -0.019896790113079755 0.045351636977703773 0.025272760417880558 -0.084155886002307792 -0.070190474448795975 -0.010102542202838396 0.027174202030162901 -0.13077338991838169 -0.040297607653750935 0.03017882487877693 -0.0083369446226975626 -0.064724154832525374 -0.099770877783912013 0.0039557890758799841 0.020720962920016149 -0.040273491560951967 0.015903256758767997 0.058150581840867285 0.028862971008694255 -0.02080691606052075 0.0080959359054211377 -0.0092738760726304575 -0.03175476007769773 -0.027398075202189207 -0.062682147638318336 -0.057084991902477102 0.0092734197966359566 0.10632829563278548 -0.002596515037023035
leaf_count=3703 8552 9526 6430 9838 1981 1389 6013 3279 1717 9682 10757 6239 7205 3553 13648 10368 8514 5302 4999 32419 6002 13753 12030 4402 6060 1187 3961 18005 1175 4178
internal_value=0 -1.18667 0.576271 0.448572 -1.70692 -0.411972 0.0117676 1.98731 -2.89648 -1.32555 0.827189 0.344295 -1.68965 -2.63199 -0.251013 0.602299 -0.983242 -0.0985011 2.34836 1.05371 -0.330933 0.0988681 -0.0747121 -1.49224 -0.625614 -1.27516 -2.20788 0.448746 2.76853 0.258336
internal_count=235867 77151 158716 145560 46139 31012 67581 13156 11212 34927 77979 29830 16887 9495 37751 39130 18040 24034 9877 38849 14554 19992 25678 6978 12073 5589 5942 28373 4878 9480
cat_boundaries=0 1 2 3 4 5 6 7 8 9 10 22 23 24
cat_threshold=452 128 4088 2044 324 2044 552 2040 1016 40 25088 0 262144 0 2080374784 1060 0 0 0 16785796 4272553984 7 40 324
shrinkage=0.03


Tree=2
num_leaves=31
num_cat=5
split_feature=10 10 228 10 231 5 64 10 16 10 5 19 10 10 19 75 19 16 64 10 64 31 3 11 10 149 19 149 10 3
split_gain=151846 28626.4 26102.5 22291.2 9430.14 5827.98 5298.48 5722.38 4684.96 4637.21 4179.02 3339.7 3207 2973.73 2542.47 2505.64 2356.62 2271.8 2068.64 1749.3 1722.41 1660.7 1629.45 1197.13 1161.05 1074.68 970.207 898.465 889.496 861.042
threshold=3.0395000000000008 5.5325000000000015 948.45000000000016 1.5275000000000001 2.5500000000000003 0 888.6500000000002 7.7735000000000012 2.1305000000000001 4.0525000000000011 1 850.13200000000018 2.2625000000000006 0.88250000000000017 636.21650000000022 1.0335000000000001 451.85350000000011 31.252500000000001 888.6500000000002 4.3085000000000013 888.6500000000002 2.4715000000000003 2 3 9.5260000000000016 3.2500000000000004 327.53400000000005 3.6500000000000008 2.3675000000000006 4
decision_type=2 2 8 2 10 1 8 2 2 2 1 2 2 2 2 10 2 2 8 2 8 2 1 5 2 10 2 10 2 1
left_child=2 4 8 11 9 22 17 10 21 16 23 13 -7 -4 18 19 20 29 -11 25 -2 -1 -5 -8 -9 -6 -14 -21 -24 -3
right_child=1 6 3 5 15 12 7 24 -10 14 -12 -13 26 -15 -16 -17 -18 -19 -20 27 -22 -23 28 -25 -26 -27 -28 -29 -30 -31
leaf_value=0.080248678309374988 0.023728722397026152 0.032044511323403212 0.030605600343127749 0.020115793667260622 -0.014241353729576016 0.0019867866032341687 -0.017731755054543673 -0.11097324205251197 0.026252667776745509 0.0053040701675411365 -0.091898601679912567 0.043392725043194219 -0.019811968304799379 0.017260732829645624 -0.034704484336500238 0.0082751318773107152 -0.015434601801941604 -0.059797721740950063 -0.062369337715788134 -0.03412537624595003 -0.038256634614795088 0.055496823463313631 0.011626378021233841 -0.058457278400826318 -0.16623916823604296 0.0057348607477492042 -0.0060714584268514926 -0.011335367408165009 -0.0025862475133091568 -0.022381012115028572
leaf_count=4943 422 304 26794 13290 6949 26548 756 1674 3210 431 4338 8310 11200 34225 8600 5490 11579 1934 7160 4688 9184 4817 10030 6474 430 3722 7878 2331 6552 1604
internal_value=0 -1.14109 0.563991 0.442279 -0.815432 0.0663275 -2.26706 -2.55863 1.92307 -1.1262 -2.28272 0.851682 -0.158486 0.770686 -1.52911 -0.314337 -0.818272 -1.22948 -1.9509 -0.497495 -1.18445 2.26775 0.40962 -1.80764 -4.0756 -0.242458 -0.471267 -0.885228 0.200232 -0.455293
internal_count=235867 78070 157797 144827 60556 75498 17514 13672 12970 37376 11568 69329 45626 61019 16191 23180 21185 3842 7591 17690 9606 9760 29872 7230 2104 10671 19078 7019 16582 1908
cat_boundaries=0 1 2 4 14 16
cat_threshold=4278190576 2139095280 100401146 81920 0 0 0 0 671088640 392119 31426560 0 35651584 8 268470304 24720
shrinkage=0.03


Tree=3
num_leaves=31
num_cat=10
split_feature=10 10 0 0 10 0 10 0 19 19 17 19 19 4 10 10 10 10 19 10 231 10 27 11 5 6 232 14 0 0
split_gain=142785 30058.2 24813.7 18743.4 18012.2 12709.8 5208.59 5131.66 4585.83 3760.44 3440.1 3018.12 2899.69 2898.01 2375.93 2291.68 2160.6 2090.18 2054.45 1910.18 1909.01 1404.64 1097.95 1069.28 1052.92 1357.49 1020.4 998.643 997.049 953.705
threshold=2.8635000000000006 4.9235000000000015 0 1 1.4005000000000003 2 6.6895000000000016 3 511.56450000000001 605.43650000000014 5.6795 706.63300000000004 596.5395000000002 4 2.0495000000000005 6.5375000000000005 3.7555000000000001 0.82350000000000012 917.89900000000011 3.6095000000000002 3.1500000000000008 2.0345000000000009 11.768500000000001 5 6 950.79350000000011 7 220.51800000000003 8 9
decision_type=2 2 1 1 2 1 2 1 2 2 2 2 2 1 2 2 2 2 2 2 10 2 2 5 1 2 5 2 1 1
left_child=2 3 10 20 12 15 11 13 16 14 22 -7 17 -6 -9 23 -5 -4 -8 -10 24 -11 -1 -3 -2 27 -17 -26 -21 -13
right_child=1 5 4 8 7 6 18 9 19 21 -12 29 -14 -15 -16 26 -18 -19 -20 28 -22 -23 -24 -25 25 -27 -28 -29 -30 -31
leaf_value=0.064372205078022243 0.0048020205108782509 -0.046883862368659164 0.029908959022273657 -0.035775188189580392 0.027853840160537519 -0.083569601262523108 -0.12881434204334255 0.00013706017406103982 -0.012922935615432439 0.019988058008352013 0.034640905515215939 -0.067080819529150237 0.04046927429689693 0.007229976998835195 -0.016078660615316948 -0.0057244348236825315 -0.058733029702836698 0.017713978092139926 -0.086524896068365137 -0.043227098918293794 0.012313906517303 0.0027764428319130858 0.094310891253522669 -0.016746325878550745 0.032180480734302214 -0.018255957301195624 -0.056328968226387333 -0.017690198735979046 -0.024637479521805929 -0.042915967031249148
leaf_count=7255 5574 1306 22642 9148 9862 4373 1677 17530 8937 7202 3807 2407 10399 16250 15169 415 6183 28661 2696 4150 9561 10473 1300 5731 948 6427 3484 584 7319 4397
internal_value=0 -1.03223 0.587028 -0.633969 0.46547 -1.91685 -2.49787 0.141233 -1.08755 -0.045294 1.94391 -2.13747 0.86747 0.500896 -0.246179 -1.08742 -1.50114 0.76987 -3.42475 -0.777361 0.0683759 0.326321 2.29739 -0.747666 -0.173257 -0.406387 -1.7034 0.438991 -1.04744 -1.72088
internal_count=235867 85317 150550 58831 138188 26486 15550 76486 35737 50374 12362 11177 61702 26112 32699 10936 15331 51303 4373 20406 23094 17675 8555 7037 13533 7959 3899 1532 11469 6804
cat_boundaries=0 1 2 3 4 5 17 18 29 30 31
cat_threshold=128 452 452 324 4080 20989952 0 1835008 0 4261412864 38 0 0 3584 0 4229955584 7 4227859440 16 0 8 0 201334784 16778245 0 8768 673239042 17088 17043492 40 40
shrinkage=0.03


Tree=4
num_leaves=31
num_cat=1
split_feature=10 10 10 228 228 67 5 146 10 10 19 19 146 19 16 10 14 19 10 149 10 10 67 14 17 31 10 19 67 67
split_gain=134452 28774.3 20634 16494.3 8833.54 8183.08 5465.69 4845.54 5057.56 4537.85 3661 3314.28 2884.78 2795.86 2439.54 2378.36 2198.67 2125.15 1991.8 1802.2 1551.23 1484.36 1344.97 1206.16 1205.89 1083.61 1039.51 983.983 911.573 844.018
threshold=3.3335000000000004 1.8325000000000002 5.5325000000000015 948.45000000000016 948.45000000000016 2.5500000000000003 0 950.35000000000002 7.2385000000000002 1.1785000000000003 752.15000000000009 527.56450000000007 888.6500000000002 917.89900000000011 -2.0169999999999995 2.5305000000000004 198.42450000000002 695.11800000000005 4.3085000000000013 2.9500000000000006 9.5260000000000016 4.3085000000000013 2.7500000000000004 15.935500000000003 5.0715000000000012 2.9145000000000008 0.66750000000000009 363.26200000000006 4.3500000000000005 1.9500000000000002
decision_type=2 2 2 8 8 10 1 8 2 2 2 2 8 2 2 2 2 2 2 10 2 2 10 2 2 2 2 2 10 10
left_child=1 3 5 25 14 11 22 16 10 17 -9 12 -2 29 -3 -8 -4 26 -14 -7 23 -13 -6 -10 -21 -1 -5 -17 -12 -11
right_child=2 4 7 9 6 19 15 8 20 13 28 21 18 -15 -16 27 -18 -19 -20 24 -22 -23 -24 -25 -26 -27 -28 -29 -30 -31
leaf_value=0.077783920062127879 0.013559832374899175 0.051083909308955303 -0.011748445129249704 0.03132286173925667 0.0020378689778990846 -0.019346137257915449 -0.0038622155655691414 -0.086551293333187937 -0.12583076464827173 0.0073432131205543091 -0.054376121069060208 -0.01881360995287349 -0.041338844406382393 0.031603628661013163 0.013377245305533723 -0.02487897060729816 -0.056503093040554744 0.043739437110498658 -0.066270794161941496 0.026212416623207068 -0.15596630927880067 -0.036724835069115884 0.015625115824886737 -0.083854182752809675 -0.0053521513532701903 0.055332569353865185 0.021493401937486275 -0.010077436623045546 -0.027195572207009914 0.017747761767518987
leaf_count=4053 673 3460 1941 15514 18138 10151 21823 3497 864 23473 5341 9223 8124 6761 2789 9982 2012 6422 4471 1267 444 7592 10269 2147 7767 3702 25763 6793 1402 10009
internal_value=0 0.476419 -1.19841 0.837486 0.00472948 -0.866067 -0.101319 -2.12623 -2.40775 0.714201 -2.05476 -1.19153 -1.56519 0.466894 1.14183 -0.346287 -1.15092 0.922851 -1.67297 -0.355732 -3.45395 -0.896685 0.231572 -3.19664 -0.0308428 2.23554 0.839594 -0.629504 -1.62416 0.34845
internal_count=235867 168951 66916 95697 73254 49268 67005 17648 13695 87942 10240 30083 13268 40243 6249 38598 3953 47699 12595 19185 3455 16815 28407 3011 9034 7755 41277 16775 6743 33482
cat_boundaries=0 1
cat_threshold=4278190576
shrinkage=0.03


Tree=5
num_leaves=31
num_cat=1
split_feature=10 10 228 10 149 10 67 146 4 67 16 19 19 10 19 10 10 231 146 67 19 24 10 14 231 10 19 16 146 10
split_gain=126758 28728.3 20978.8 14473.6 7946.15 6519.37 4629.93 4593 4371.38 3444.09 3374.01 2569.73 2165.86 2117.77 2092.68 1986.7 1837.9 1821.81 1541.16 1377.54 1330.65 1267.77 1179.08 1174.93 1148.03 1146.66 1013.39 874.446 980.697 848.713
threshold=2.7585000000000002 4.7705000000000011 948.45000000000016 1.4005000000000003 2.7500000000000004 6.6895000000000016 2.3500000000000001 950.35000000000002 0 1.9500000000000002 3.4115000000000006 596.5395000000002 935.01800000000014 3.6095000000000002 729.70850000000007 2.0495000000000005 0.82350000000000012 3.1500000000000008 950.35000000000002 2.6500000000000008 390.90050000000002 -16.479499999999998 8.7075000000000014 282.23600000000005 4.4500000000000011 3.6665000000000005 385.62850000000009 -12.121499999999999 950.35000000000002 3.7865000000000006
decision_type=2 2 8 2 10 2 10 8 1 10 2 2 2 2 2 2 2 10 8 10 2 10 2 2 10 2 2 2 10 2
left_child=2 4 10 11 9 6 14 23 19 13 21 16 -9 26 18 -10 -4 29 -3 -5 -15 -1 -14 -7 -8 -11 -2 28 -19 -6
right_child=1 5 3 8 17 7 24 12 15 25 -12 -13 22 20 -16 -17 -18 27 -20 -21 -22 -23 -24 -25 -26 -27 -28 -29 -30 -31
leaf_value=0.075469090497533989 -0.031145953407525899 -0.0070207687384616696 0.028214713041203977 0.008813496675072946 -0.001552207679589775 -0.021826239718388707 -0.03496247003370731 -0.11410017650666635 0.0043372867643794227 -0.0061519772498402113 0.025830299354878204 0.038186468128277723 -0.068222373292617405 -0.053603812093380415 -0.044628400147749867 -0.0087558883319774228 0.016787601060214982 0.041047913369686287 -0.074719550027786755 0.022266636031601408 -0.032084541163093366 0.05319296687428525 -0.11723357925746448 -0.064653334879816282 -0.011684540498143452 -0.022064410388842166 -0.014917465957385159 0.0040040355727662688 0.0015772545333934637 -0.018353387658806279
leaf_count=4522 6975 322 22662 19327 6649 1326 7613 2148 23814 9294 2669 10389 2905 4364 5787 18558 28723 1440 5034 10611 6348 4678 521 1020 2544 7259 6878 5990 934 4563
internal_value=0 -0.932775 0.576616 0.463818 -0.540574 -1.74743 -1.4594 -2.52205 0.160147 -0.790235 1.8509 0.819283 -3.0161 -1.02781 -1.90452 -0.0465635 0.727574 -0.0161777 -2.35498 0.452573 -1.36171 2.13807 -2.52252 -1.34822 -0.97107 -0.437669 -0.769618 0.337025 0.850634 -0.279662
internal_count=235867 89914 145953 134084 60694 29220 21300 7920 72310 41118 11869 61774 5574 24565 11143 42372 51385 19576 5356 29938 10712 9200 3426 2346 10157 16553 13853 8364 2374 11212
cat_boundaries=0 1
cat_threshold=4088
shrinkage=0.03


Tree=6
num_leaves=31
num_cat=9
split_feature=10 0 10 0 10 10 10 0 19 19 16 19 19 5 10 10 10 19 10 67 17 10 31 231 10 0 3 0 0 0
split_gain=119685 27713.1 20303.2 20079.8 13311 9098.85 4892.1 4113.79 3970.15 3231.46 3048.05 2700.42 2547.3 2211.6 2040.66 1960.76 1843.24 1647.04 1551.4 1527.61 1395.58 1359.66 1147.38 1124.98 1018.4 999.748 987.297 950.194 801.844 749.419
threshold=2.7395000000000005 0 4.7705000000000011 1 1.4425000000000001 5.6115000000000022 6.847500000000001 2 551.32100000000025 496.10450000000009 0.64150000000000007 835.80050000000017 850.13200000000018 3 3.9835000000000007 0.88250000000000017 3.6375000000000006 935.01800000000014 3.5815000000000006 3.1500000000000008 8.0495000000000019 2.0345000000000009 2.6625000000000005 3.8500000000000001 2.0345000000000009 4 5 6 7 8
decision_type=2 1 2 1 2 2 2 1 2 2 2 2 2 1 2 2 2 2 2 10 2 2 2 10 2 1 1 1 1 1
left_child=3 5 8 10 12 14 11 13 16 21 22 28 15 -6 19 -5 -3 -8 -10 -2 -7 -9 -1 -16 -11 -17 -22 -13 -4 -20
right_child=1 2 6 4 7 20 17 9 18 24 -12 27 -14 -15 23 25 -18 -19 29 -21 26 -23 -24 -25 -26 -27 -28 -29 -30 -31
leaf_value=0.072992856778754625 0.00048444543868160928 -0.03064104697041603 -0.087211354857544471 0.027154005791886659 0.025801935342365818 -0.0015558637976622143 -0.12176066239815352 -0.0012507138725821698 -0.010602045020286055 0.0168924903360817 0.027086370127111119 -0.061602848981335188 0.039862408310783894 0.0070354176768552676 -0.015287372758133494 0.02324503162622138 -0.050588380730149034 -0.081523723925136113 -0.037974908220844525 0.019094491799549463 -0.029023333003925303 -0.014739455464353374 0.051548063610944314 0.0036521431557442583 0.0025960907804820077 0.011829685757290018 -0.053522458281529017 -0.038450568860489538 -0.063467612020561198 -0.020996131889745185
leaf_count=4776 10568 10400 2553 26651 9450 863 1507 14622 9909 8014 2802 2571 7475 14104 7958 10878 6959 2333 3748 6358 2864 12454 4238 4374 10182 19160 3307 4774 3452 6563
internal_value=0 -0.899695 -1.34867 0.563474 0.452346 -0.221705 -2.24914 0.146912 -0.937123 -0.029477 1.81231 -1.96303 0.780043 0.485747 0.0237427 0.707691 -1.28792 -3.24382 -0.635959 0.249168 -1.24296 -0.248502 2.09701 -0.285659 0.29642 0.532511 -1.40953 -1.55636 -2.46044 -0.907501
internal_count=235867 91061 54769 144806 132990 36292 17190 68826 37579 45272 11816 13350 64164 23554 29258 56689 17359 3840 20220 16926 7034 27076 9014 12332 18196 30038 6171 7345 6005 10311
cat_boundaries=0 1 2 3 5 6 8 9 10 11
cat_threshold=452 128 324 4278190576 1 324 272234721 192001 40 40 40
shrinkage=0.03


Tree=7
num_leaves=31
num_cat=12
split_feature=10 10 0 0 10 0 19 4 10 16 0 10 19 10 0 67 10 10 19 67 0 19 3 17 6 3 10 0 5 0
split_gain=112638 26296.4 18740 17385.2 12257.3 10427.1 3965.63 3912.23 3262.11 2839.57 2684.79 2608.34 2313.75 2286.16 1955.23 1888.85 1673.94 1565.48 1475.65 1243.05 1222.24 1104.76 1084.74 1016.36 1088.76 1008.82 965.508 943.378 877.705 1093.27
threshold=2.7195000000000005 5.033500000000001 0 1 1.3865000000000001 2 752.15000000000009 3 6.847500000000001 0.64150000000000007 4 3.7555000000000001 596.5395000000002 6.5375000000000005 5 2.6500000000000008 3.8825000000000007 0.71750000000000014 850.13200000000018 4.2500000000000009 6 935.01800000000014 7 4.6765000000000008 958.33450000000005 8 1.9535000000000002 9 10 11
decision_type=2 2 1 1 2 1 2 1 2 2 1 2 2 2 1 10 2 2 2 10 1 2 1 2 2 1 2 1 1 1
left_child=2 3 9 15 12 8 11 10 18 22 25 -5 17 19 -9 28 -8 -4 -3 -7 -15 -10 -1 24 -17 -6 -16 -19 -2 -30
right_child=1 5 4 6 7 13 16 14 21 -11 -12 -13 -14 20 26 23 -18 27 -20 -21 -22 -23 -24 -25 -26 -27 -28 -29 29 -31
leaf_value=0.07400929584107796 0.005050207637656276 -0.078716932464700684 0.027876890469478287 -0.028928351009120962 0.033308221158471651 -0.033356087214510714 -0.010782928785439608 -0.010776875785655265 -0.12421598221124741 0.026372483545619985 0.0053689898885749786 -0.050076491138990875 0.036227378398088234 -0.037968194430952021 0.0085836279420420936 0.04053846987701825 -0.029029934428780449 0.02338995405383789 -0.052393556012059583 -0.0084975573642759074 -0.067685362238216348 -0.08642866720831556 0.051997132735450154 0.0067220039819846245 -0.0020521650130563736 0.016190619618938355 -0.0023265277151936267 0.012848216197967768 0.0015182705615742378 -0.02038672510700254
leaf_count=3648 4753 3664 17362 13653 5527 6469 10987 12778 1214 2776 16812 8527 10240 2945 15041 1799 7693 12179 4019 2514 2327 1633 5316 10590 772 7226 14185 20829 3569 4820
internal_value=0 -0.865944 0.550975 -0.541077 0.443305 -1.74628 -0.949156 0.163101 -2.50134 1.76134 0.441702 -1.23529 0.774246 -1.18593 -0.0330923 0.093174 -0.60992 0.686151 -2.1649 -0.879971 -1.70951 -3.41806 2.03653 0.360992 0.924989 0.787649 0.109573 0.558293 -0.17496 -0.369226
internal_count=235867 91948 143919 67163 132179 24785 40860 71569 10530 11740 29565 22180 60610 14255 42004 26303 18680 50370 7683 8983 5272 2847 8964 13161 2571 12753 29226 33008 13142 8389
cat_boundaries=0 1 2 3 4 5 6 7 9 11 12 13 14
cat_threshold=128 452 553 4088 836 552 448 9699131 1005568 134215672 73728 324 4227858928 384
shrinkage=0.03


Tree=8
num_leaves=31
num_cat=10
split_feature=10 10 0 0 10 0 10 10 19 19 10 19 35 4 19 16 149 10 19 0 10 0 17 10 0 232 17 28 4 0
split_gain=106284 23174.7 20762 13469.9 11693.1 9898.88 5946.2 3635.22 3506.27 3177.59 2972.08 2728.16 2490.17 2461.73 2038.52 1958.19 1544.01 1498.65 1485.15 1455.89 1346.05 1343.24 1152.27 1081.44 937.29 930.442 901.001 900.746 784.065 1227.93
threshold=3.3335000000000004 1.8475000000000004 0 1 5.5325000000000015 2 5.8725000000000005 1.0675000000000001 605.43650000000014 472.90650000000005 8.168000000000001 682.71400000000006 955.19150000000013 3 835.80050000000017 -4.6854999999999984 3.4500000000000006 4.2315000000000014 850.13200000000018 4 2.5675000000000003 5 8.5665000000000031 2.5485000000000002 6 7 6.0085000000000006 12.518500000000001 8 9
decision_type=2 2 1 1 2 1 2 2 2 2 2 2 10 1 2 2 10 2 2 1 2 1 2 2 1 5 2 2 1 1
left_child=1 3 6 27 8 12 16 18 17 20 14 19 15 -14 -6 -3 28 -4 -5 -9 -7 -10 -8 -11 -16 -24 -18 -1 -2 -30
right_child=2 5 4 7 10 9 22 11 21 23 -12 -13 13 -15 24 -17 26 -19 -20 -21 -22 -23 25 -25 -26 -27 -28 -29 29 -31
leaf_value=0.054243581280455304 -0.0025883289646697486 0.04577406855450205 -0.03921477704968928 0.023704946213530181 -0.085045293941770406 -0.010682176816902311 -0.0049806733212976175 0.017481074749394962 -0.038289204328870667 0.0062296587186719569 -0.11614004784996841 0.026576215976408024 0.020598042475531458 0.00019445105650205184 -0.073897776114661085 0.012467395829978589 0.027664502386085706 -0.059747516182161231 0.043174752998047884 0.0050687580283160201 -0.025403070341989006 -0.020518742413521328 -0.0051319617423542787 -0.0073622510322588746 -0.046480209805924981 -0.047546598443747951 0.0014220556371164724 0.077844687706645807 -0.0028905900943788005 -0.028333896801913085
leaf_count=5909 5889 3404 7683 36597 3516 13706 819 13227 6101 10508 1279 10893 9287 12458 1787 2979 1423 5482 3902 23872 9441 10577 533 10566 3643 4640 6825 1931 2993 3997
internal_value=0 0.422318 -1.06497 0.743542 -1.52219 -0.00538541 -0.388721 0.631986 -1.20636 -0.300369 -2.44547 0.445869 0.458312 0.297271 -2.24162 1.00765 -0.139491 -1.59216 0.852694 0.316674 -0.556214 -0.901821 -1.26812 -0.0195 -1.8575 -1.44261 0.198319 1.99934 -0.355832 -0.581973
internal_count=235867 168680 67187 96331 40068 72349 27119 88491 29843 44221 10225 47992 28128 21745 8946 6383 21127 13165 40499 37099 23147 16678 5992 21074 5430 5173 8248 7840 12879 6990
cat_boundaries=0 1 2 3 4 5 6 7 19 20 21
cat_threshold=452 128 452 4080 324 40 40 16 1310720 24 134217728 209986561 16777216 2147762432 8704 539005440 2637888 16777472 2 3149760 384
shrinkage=0.03


Tree=9
num_leaves=31
num_cat=6
split_feature=10 10 228 10 67 4 10 146 5 16 19 10 10 19 231 16 10 19 146 3 10 10 146 31 11 16 3 3 228 67
split_gain=100236 20166.9 16913.2 13834.1 7635.46 3802.55 3622.19 3520.01 4189.74 3117.02 2683.06 2557.05 2532.6 1974.83 1903.67 1798.9 1794.26 1719.59 1455.73 1431.22 1398.68 1385.35 1299.87 1220.43 1077.7 919.594 856.106 814.494 755.435 684.28
threshold=2.9505000000000003 5.5325000000000015 948.45000000000016 1.6395000000000002 2.5500000000000003 0 3.9835000000000007 950.35000000000002 1 2.5555000000000008 835.80050000000017 0.98550000000000015 8.168000000000001 511.56450000000001 3.7500000000000004 44.066500000000012 7.2385000000000002 379.95550000000009 888.6500000000002 2 3.9155000000000002 2.2465000000000006 888.6500000000002 2.0445000000000007 3 -12.6275 4 5 948.45000000000016 1.8500000000000003
decision_type=2 2 8 2 10 1 2 8 1 2 2 2 2 2 10 2 2 2 8 1 2 2 8 2 5 2 1 1 10 10
left_child=2 4 9 10 6 19 17 15 12 23 11 -4 24 22 20 27 -10 18 -2 -5 -6 -7 -8 -1 -9 28 -26 -3 -16 -13
right_child=1 7 3 5 14 21 13 8 16 -11 -12 29 -14 -15 25 -17 -18 -19 -20 -21 -22 -23 -24 -25 26 -27 -28 -29 -30 -31
leaf_value=0.067965175562841956 0.025652777677390416 0.03025717740801916 0.023888586971420038 0.016577662168364937 -0.002555478718982711 9.9579823323446884e-05 0.0065113552489589029 -0.0090087731015182256 -0.073973962982360392 0.020890962169966668 0.034556608735559879 0.0092263207871785269 -0.095797565294901729 -0.029284783421445013 0.0362494609725054 -0.050959198059284332 -0.11518129453682401 -0.012341198624876447 -0.031869598890373621 0.0030582912750590305 -0.020102298032905325 -0.011598185792700978 -0.053110167153799258 0.046432454103155323 -0.0608071394804039 0.00030115821182786194 -0.038569169790733493 -0.019255243986347641 -0.0019474050428392765 0.018317774681772054
leaf_count=4226 415 355 32152 13301 8067 20058 347 750 3859 3005 9888 23431 943 10677 1402 1937 1262 13559 8630 15011 8290 16696 6382 5391 2707 5647 4184 1672 698 10925
internal_value=0 -0.89351 0.47622 0.377256 -0.632824 0.038401 -0.90068 -1.83944 -2.07948 1.58537 0.665857 0.593597 -1.64516 -1.24356 -0.188212 -1.00951 -2.79883 -0.636647 -0.974346 0.313777 -0.381617 -0.173762 -1.66785 1.86315 -1.45626 0.220142 -1.57935 -0.350986 0.785118 0.403912
internal_count=235867 81783 154084 141462 64114 65066 40010 17669 13705 12622 76396 66508 8584 17406 24104 3964 5121 22604 9045 28312 16357 36754 6729 9617 7641 7747 6891 2027 2100 34356
cat_boundaries=0 1 2 4 14 16 18
cat_threshold=4088 2139095280 133955450 212992 0 0 0 0 671088640 1506231 329222144 1073741824 0 8 4291953024 4607 1342212192 24704
shrinkage=0.03


Tree=10
num_leaves=31
num_cat=16
split_feature=10 0 10 0 10 0 10 5 10 4 231 10 10 5 5 10 75 5 10 0 11 0 10 11 27 5 0 0 25 0
split_gain=94393.8 19601.3 18717.9 11494.9 11177.9 8758.08 6142.04 3092.71 2844.16 2430.45 2356.89 2309.64 1970.8 1956.61 1795.71 1446.48 1384.61 1289.58 1175.97 1046.3 1008.64 1042.29 961.874 918.221 911.981 890.715 883.231 881.718 855.251 841.043
threshold=3.2075000000000005 0 1.7575000000000001 1 5.7805000000000017 2 5.8725000000000005 3 1.0265000000000002 4 3.0500000000000003 8.7075000000000014 4.384500000000001 5 6 2.5485000000000002 1.2284999999999995 7 4.3085000000000013 8 9 10 4.3455000000000004 11 11.063500000000003 12 13 14 12.239500000000001 15
decision_type=2 1 2 1 2 1 2 1 2 1 10 2 2 1 1 2 10 1 2 1 5 1 2 5 2 1 1 1 2 1
left_child=2 6 3 24 7 10 16 18 17 29 25 14 -9 19 -6 -11 22 -5 -3 -10 -8 -22 -2 -24 -1 -4 -15 -14 -12 -7
right_child=1 4 5 8 11 9 20 12 13 15 28 -13 27 26 -16 -17 -18 -19 -20 -21 21 -23 23 -25 -26 -27 -28 -29 -30 -31
leaf_value=0.053255296287063519 -0.00049779531311117554 -0.016688311795784273 0.01704478151334813 0.037100828757094667 -0.055211134781957112 -0.013281454130865896 0.001754348195102738 -0.034774784226974526 0.031570825464128684 -0.0067851135244405862 0.020739553152461294 -0.12107669402628368 -0.068798162237791893 0.0011414577935838074 -0.085417249894997438 -0.02037016129567468 0.010283119221164814 0.022067061253319083 -0.033166182210543002 0.015104730131677849 -0.063329997771325974 -0.032605864795678625 0.011472706656129155 -0.0192086908768461 0.083936319107126012 0.0034632920967821814 0.012364077019124061 -0.045859373373380918 0.040614738088594213 0.0062445060814431035
leaf_count=6460 9658 8726 6666 6188 4795 2362 572 11748 6475 18859 6746 786 2676 8795 3051 11269 5794 31841 7045 7646 1363 4086 1017 6268 1008 12502 22445 4092 2740 12188
internal_value=0 -0.956215 0.419226 0.72256 -1.38417 0.0433972 -0.316928 -1.12843 0.615857 -0.233355 0.474831 -2.4016 -1.40603 0.446834 -2.23788 -0.395416 -0.0792204 0.817629 -0.801128 0.755735 -1.21511 -1.34644 -0.223529 -0.497871 1.91066 0.27324 0.306865 -1.83662 0.882681 0.102259
internal_count=235867 71677 164190 90858 42919 73332 28758 34287 83390 44678 28654 8632 18516 45361 7846 30128 22737 38029 15771 14121 6021 5449 16943 7285 7468 19168 31240 6768 9486 14550
cat_boundaries=0 1 2 3 4 5 7 8 9 10 21 22 33 35 36 37 38
cat_threshold=452 128 452 2130706672 1016 4278190320 1 2139095280 4261412976 836 872415232 5 0 0 0 47104 32505004 0 0 262144 32768 4 0 0 0 0 0 134549504 569391120 1057 268959744 87228424 8347 4227859440 1 552 40 8
shrinkage=0.03


Tree=11
num_leaves=31
num_cat=13
split_feature=13 0 13 13 13 6 0 16 26 16 13 16 35 5 13 13 0 4 13 11 4 3 11 19 3 13 3 11 13 3
split_gain=35655 32127 26192.4 7904.12 6597.68 7920.46 6438.59 5365.4 5225.07 4280.88 3791.93 3637.69 3227.95 3467.37 2312.7 2070.24 1873.27 1781.88 1643.15 1387.34 1264.77 1178.01 1123.32 1214.72 1116.19 1137.31 1100.86 1047 973.927 938.331
threshold=-3.3360575499999996 0 2.4138326000000006 -1.4173118499999997 2.2301643000000007 948.80150000000015 1 21.355500000000003 7.8624999999999998 -19.081499999999995 -5.3677858499999997 -22.121499999999994 937.98350000000016 2 1.1931814000000003 4.0682871500000006 3 4 -1.2232037499999997 5 6 7 8 865.68500000000006 9 -5.1341838500000003 10 11 -0.51600726999999991 12
decision_type=2 1 2 2 2 2 1 2 2 2 2 2 8 1 2 2 1 1 2 5 1 1 5 2 1 2 1 5 2 1
left_child=6 4 3 19 5 7 24 21 20 -5 -8 -7 15 26 27 -6 -10 18 -13 -3 -4 -2 -16 -24 -1 -26 -14 28 -11 -20
right_child=1 2 8 9 12 11 10 -9 16 14 -12 17 13 -15 22 -17 -18 -19 29 -21 -22 -23 23 -25 25 -27 -28 -29 -30 -31
leaf_value=0.020999408558920598 0.059739345939876343 -0.040403213044169439 -0.017079944989851308 -0.019034834556837743 -0.0082288883200369953 -0.01129151423075732 -0.078320151160647097 0.0051503155568199833 -0.065655815734409109 -0.025754635798752694 -0.04181060187383831 0.0074042980957339036 0.029149774690425553 -0.011665771957844601 -0.026276360985885719 -0.053791949746860503 -0.039048175434393054 0.013474363190207382 0.037385570558628047 -0.015360590591623313 -0.038160674584728514 0.040813872060166199 -0.0070692599502803202 0.0089104539325872822 -0.040269076386321809 -0.0049048087745748488 0.0052589775358330626 0.0098822886278311685 0.0027930973579349829 0.022955457499947197
leaf_count=856 5249 2318 9591 6931 2884 4078 3461 3184 4643 1248 9838 3937 4907 4897 1747 1303 5195 30292 6998 14304 3527 7495 11591 6789 1242 2400 2709 54389 7783 10081
internal_value=0 0.112271 -0.203485 0.00426661 0.578813 0.711371 -1.35978 1.33282 -1.17283 0.120707 -1.70912 0.532653 0.0130971 0.267414 0.183358 -0.746939 -1.72373 0.604904 0.828803 -0.629548 -0.759666 1.62293 -0.111979 -0.0388739 -0.322392 -0.563944 0.688996 0.277086 -0.0383553 0.963448
internal_count=235867 218070 130056 107100 88014 71314 17797 15928 22956 90478 13299 55386 16700 12513 83547 4187 9838 51308 21016 16622 13118 12744 20127 18380 4498 3642 7616 63420 9031 17079
cat_boundaries=0 1 2 3 4 5 15 16 18 27 29 31 41 43
cat_threshold=452 384 4227858928 40 8176 0 3758096384 131025 0 0 0 0 0 0 46137088 2040 1571707 941056 0 0 0 4294918144 6 0 0 2415919104 32736 1342212160 27793 1207959456 2060 0 0 887586816 545 0 0 0 0 3738304512 1407 133824242 16388
shrinkage=0.03


Tree=12
num_leaves=31
num_cat=9
split_feature=10 10 0 0 10 0 10 19 19 10 19 19 149 10 11 19 10 0 231 0 10 10 0 10 25 232 27 10 10 11
split_gain=85151.8 18558.9 16604.5 10569.7 8952.67 8333.89 4734.44 3019.34 2884.75 2830.77 2228.36 2183.92 2173.07 1638.9 1434.83 1296.8 1232.86 1227.26 1182.29 1149.94 1090.12 1059.08 932.355 908.153 854.295 835.835 823.5 804.316 705.838 685.823
threshold=3.3335000000000004 1.8025000000000002 0 1 5.7805000000000017 2 6.1675000000000013 763.16200000000015 503.95550000000009 1.0395000000000001 900.11450000000002 682.71400000000006 2.5500000000000003 4.3455000000000004 3 596.5395000000002 2.6045000000000003 4 3.1500000000000008 5 8.7075000000000014 7.480500000000001 6 2.5485000000000002 14.356500000000002 7 10.626500000000002 4.5475000000000003 8.7075000000000014 8
decision_type=2 2 1 1 2 1 2 2 2 2 2 2 10 2 5 2 2 1 10 1 2 2 1 2 2 5 2 2 2 5
left_child=1 3 6 26 7 12 14 13 16 15 21 19 -3 -4 -2 -5 -7 -9 27 -11 22 -6 -12 -10 -14 -8 -1 -16 29 -27
right_child=2 5 4 9 10 8 25 17 23 11 20 -13 24 -15 18 -17 -18 -19 -20 -21 -22 -23 -24 -25 -26 28 -28 -29 -30 -31
leaf_value=0.049845393237755366 0.014780267851909248 0.0054912322998594736 -0.034782256924705955 0.020969443983784079 -0.077403997342060507 -0.0095851527203106111 -0.0018265852148575271 -0.035186651187633422 0.0065259145597093143 0.015988712464299892 -0.070871086580864009 0.024395579919826636 0.017873623199415777 -0.054365580688598307 -0.0078126498291397842 0.036603490593453053 -0.023432730928900393 -0.017582699733817701 0.00093468995700496577 0.0048769202274706004 -0.10088077688666064 -0.11629372063898175 -0.041641676429071593 -0.0059736879539462979 0.036618690853464739 -0.0084150212144308619 0.076991561207842896 -0.024795440214815855 -0.066029163409315098 -0.042022740958555696
leaf_count=6466 2991 16465 9580 33346 2570 15726 554 5675 10728 13005 1544 10413 10065 6426 6763 5573 9155 9817 8342 23637 439 835 3170 10210 2796 700 1191 3991 846 2848
internal_value=0 0.37745 -0.954362 0.674522 -1.36297 0.00729829 -0.34832 -1.11688 -0.259111 0.574017 -2.27029 0.409059 0.423481 -1.42148 -0.150379 0.773605 -0.489346 -0.80218 -0.251227 0.294214 -1.85549 -2.89803 -1.71513 0.0143577 0.731628 -1.2326 1.79991 -0.470509 -1.37705 -1.18448
internal_count=235867 168776 67091 93631 40056 75145 27035 31498 45819 85974 8558 47055 29326 16006 22087 38919 24881 15492 19096 36642 5153 3405 4714 20938 12861 4948 7657 10754 4394 3548
cat_boundaries=0 1 2 3 14 15 16 17 29 40
cat_threshold=452 128 452 0 0 0 0 8192 268435456 3787063296 0 34340867 1494450696 1235 40 324 40 0 0 0 67108864 75505664 16777222 0 268444162 2134018 1612202576 1090524192 2 268435456 4 0 0 0 2048 2096256 0 0 551717888 33897
shrinkage=0.03


Tree=13
num_leaves=31
num_cat=13
split_feature=10 0 10 0 10 0 10 4 10 10 4 35 4 0 4 231 0 27 0 10 5 10 10 14 0 17 17 9 27 3
split_gain=80155.9 16662.7 15401.8 9582.33 9575.29 7054.35 4946.03 2594.41 2422.44 2348.81 2121.54 2068.93 1899.88 1866.28 1616.42 1347.03 1328.03 1291.75 1249.14 1217.63 1127.96 902.282 891.289 850.608 798.893 774.344 769.632 726.009 723.915 707.096
threshold=3.1595000000000004 0 1.7265000000000004 1 5.392500000000001 2 5.8725000000000005 3 8.168000000000001 1.0395000000000001 4 955.19150000000013 5 6 7 3.5500000000000003 8 11.444500000000003 9 2.3845000000000005 10 8.168000000000001 4.5475000000000003 69.478000000000023 11 10.287500000000003 7.1405000000000003 32.329500000000003 10.626500000000002 12
decision_type=2 1 2 1 2 1 2 1 2 2 1 10 1 1 1 10 1 2 1 2 1 2 2 2 1 2 2 2 2 1
left_child=2 6 3 28 7 11 15 18 13 20 27 17 -13 -6 29 22 -9 -4 -3 -12 -5 25 -2 -15 -16 -8 -17 -7 -1 -11
right_child=1 4 5 9 8 10 21 16 -10 14 19 12 -14 23 24 26 -18 -19 -20 -21 -22 -23 -24 -25 -26 -27 -28 -29 -30 -31
leaf_value=0.049176634180143147 -0.0029766865033959895 -0.031608422728160827 0.022331791414893026 0.031600503648600953 -0.073783919527540043 0.013234073511143763 0.0014047142548526436 -0.049776236912633422 -0.10134164142105138 0.032396540297958569 -0.0046372197166337347 0.019999311120350274 0.0019669365345636471 -0.062270317646700421 0.0014086348278501445 0.024465575991069577 -0.031536580557475755 0.059078866474483467 -0.014873535699889553 -0.016441441847315795 0.019606906701545378 -0.054298576765178241 -0.018881917613020029 -0.038776509943361535 0.011926838869157609 -0.032002500589990386 0.0024090765809881881 -0.0012731633517517719 0.075534646353645624 0.016349527287257408
leaf_count=6166 10177 6608 5379 9384 3719 5014 745 5851 1233 4030 17047 8508 13765 2073 9082 1789 9887 1025 10407 14601 29535 1374 4606 4191 22957 3859 6975 8153 1106 6621
internal_value=0 -0.867835 0.390854 0.670909 -1.25793 0.0521556 -0.286382 -0.985129 -2.05567 0.572648 -0.195677 0.439371 0.295498 -1.89235 0.410734 -0.0802531 -1.27816 0.940446 -0.712917 -0.336 0.750397 -1.09879 -0.264411 -1.54924 0.298221 -0.886556 0.230383 0.141599 1.77041 0.748197
internal_count=235867 73494 162373 88881 43969 73492 29525 32753 11216 81609 44815 28677 22273 9983 42690 23547 15738 6404 17015 31648 38919 5978 14783 6264 32039 4604 8764 13167 7272 10651
cat_boundaries=0 1 2 3 4 5 6 7 8 9 10 12 13 15
cat_threshold=452 128 452 2044 1008 4064 40 2032 40 40 4286578800 1 552 1207697328 81920
shrinkage=0.03


Tree=14
num_leaves=31
num_cat=13
split_feature=10 10 0 0 0 10 10 10 19 19 19 67 19 10 19 11 0 10 0 238 0 10 0 3 0 3 10 13 4 11
split_gain=75600.1 17700.3 14286 9907.36 7447.53 7413.72 3958.04 2955.02 2859.85 2649.26 2018.05 1867.44 1828.99 1478.27 1455.93 1220.07 1157.02 1067.44 1040.18 988.363 900.865 838.827 833.684 829.778 805.318 768.525 747.917 730.861 723.67 690.826
threshold=3.4405000000000006 1.8925000000000003 0 1 2 6.0585000000000013 6.1675000000000013 1.1785000000000003 741.0385 566.34350000000029 865.68500000000006 2.7500000000000004 900.11450000000002 4.3455000000000004 588.58900000000028 3 4 2.6425000000000005 5 5.6239999999999997 6 8.7075000000000014 7 8 9 10 8.7075000000000014 2.7430748000000005 11 12
decision_type=2 2 1 1 1 2 2 2 2 2 2 10 2 2 2 5 1 2 1 10 1 2 1 1 1 1 2 2 1 5
left_child=1 3 6 25 11 8 15 14 13 17 18 28 26 -4 22 -2 -10 -6 -9 20 27 -14 -5 -8 -11 -1 -7 -17 -3 -21
right_child=2 4 5 7 9 12 23 10 16 24 -12 -13 21 -15 -16 19 -18 -19 -20 29 -22 -23 -24 -25 -26 -27 -28 -29 -30 -31
leaf_value=0.041793386167666743 0.014042250760566368 0.013906198473512958 -0.034180136999078008 0.022772459859147144 -0.0098928966001084195 -0.081155539789490541 -0.015527446309681583 0.013974467433114321 -0.03529034092304123 -0.0095766564325816365 0.023802239638181778 0.020430806184884152 -0.051046814078269331 -0.053076897425995147 0.033043294281187782 -0.026154548853200694 -0.018317976195779347 -0.022463016849905683 0.0032545416113086345 0.0092723525230674567 0.0029983617477804597 -0.094814104995550263 0.014073795344511591 -0.042798680334629448 0.0037128298149126174 0.061052867763927474 -0.12942554099185216 0.0017457545976230055 0.00059988880247480343 -0.020877068563652457
leaf_count=4577 2640 5347 8131 20757 14958 2370 1464 12549 5747 5855 7863 11430 3854 6877 7437 2148 10013 10244 23246 777 8059 439 19305 3484 13657 3539 329 1393 11756 5622
internal_value=0 0.341756 -0.9356 0.616894 -0.0311435 -1.32643 -0.358181 0.522427 -1.11555 -0.285837 0.334685 0.367957 -2.25628 -1.42797 0.695098 -0.165746 -0.818036 -0.500078 0.233918 -0.258827 -0.0849263 -1.85075 0.619665 -1.16159 -0.00926583 1.67521 -2.90132 -0.504535 0.158946 -0.574477
internal_count=235867 172520 63347 99273 73247 37760 25587 91157 30768 44714 43658 28533 6992 15008 47499 20639 15760 25202 35795 17999 11600 4293 40062 4948 19512 8116 2699 3541 17103 6399
cat_boundaries=0 1 2 3 14 15 16 17 18 20 21 23 24 35
cat_threshold=452 128 452 0 131072 0 0 0 268435456 3820617728 16400 34078721 1495498760 1106 40 324 4 340 272668771 189952 40 4285267981 164857 4064 0 10486018 0 0 0 0 4096 5184 8388608 2262585857 1786633
shrinkage=0.03


Tree=15
num_leaves=31
num_cat=15
split_feature=10 10 0 0 10 0 19 19 10 0 16 10 19 231 19 5 10 10 3 0 11 0 0 19 3 17 3 0 5 0
split_gain=72164 16804.3 11998.7 9797.61 8084.22 7547.8 3232.49 2666.38 2571.88 2201.19 1987.84 1719.17 1697.27 1339.97 1271.08 1223.95 1138.52 1138.35 1131.23 1123.76 1171.56 1118.61 979.834 954.685 947.401 888.793 812.314 800.631 725.084 825.247
threshold=2.7395000000000005 4.7705000000000011 0 1 1.3725000000000003 2 882.55700000000013 472.90650000000005 6.6895000000000016 3 1.7515000000000001 6.6895000000000016 588.58900000000028 2.6500000000000008 682.71400000000006 4 3.7865000000000006 0.66750000000000009 5 6 7 8 9 812.8665000000002 10 9.6895000000000007 11 12 13 14
decision_type=2 2 1 1 2 1 2 2 2 1 2 2 2 10 2 1 2 2 1 1 5 1 1 2 1 2 1 1 1 1
left_child=2 3 10 13 12 8 9 16 14 -6 24 19 17 28 -3 22 -5 -4 -8 25 -21 -9 -11 -10 -1 -7 -13 -19 -2 -30
right_child=1 5 4 7 6 11 18 21 23 15 -12 26 -14 -15 -16 -17 -18 27 -20 20 -22 -23 -24 -25 -26 -27 -28 -29 29 -31
leaf_value=0.06195591830824132 0.0055612269492801483 -0.06273718148187761 0.0232779228221601 -0.025528590201791993 -0.011470135725292584 0.012173827677826248 0.0072417881280622369 -0.024270862448741538 -0.10217204657475133 0.021241662185307951 0.019396942091495947 -0.02533893007430725 0.029862336911659723 0.0098692144624648176 -0.040167210646201996 -0.0002913587319213031 -0.042717914645182445 0.021475736800326991 0.022572722910330783 -0.00078078486159408424 -0.035250130735866032 -0.0099500368206582989 0.0049546155682549673 -0.068180428795640763 0.041245628119779533 -0.016953959889099098 -0.051650796591105351 0.010807652298457829 0.0015267385640963327 -0.018188912016546422
leaf_count=3218 4338 3837 15064 10673 11384 1190 8492 7534 1181 4897 2717 1761 10137 12006 5415 29202 5137 8387 8902 1081 5194 14223 10373 2008 5982 4539 2940 26258 3349 4448
internal_value=0 -0.700655 0.435973 -0.405088 0.3498 -1.32643 0.127059 -0.724403 -1.91631 0.00983166 1.39694 -0.885444 0.622487 0.0920764 -1.65092 0.110281 -1.03713 0.546437 0.503503 -0.685218 -0.977425 -0.497492 0.339609 -2.69229 1.62006 -0.362823 -1.3986 0.446651 -0.142227 -0.324315
internal_count=235867 90854 145013 61708 133096 29146 73250 37567 12441 55856 11917 16705 59846 24141 9252 44472 15810 49709 17394 12004 6275 21757 15270 3189 9200 5729 4701 34645 12135 7797
cat_boundaries=0 1 2 3 4 6 8 9 20 21 22 24 26 27 28 29
cat_threshold=128 452 553 40 4261413872 3 4194566277 564223 448 0 0 0 0 0 1048576 536852624 65 0 136665088 256 40 68 9698098 1002496 268486899 455953 68 4227858928 384
shrinkage=0.03


Tree=16
num_leaves=31
num_cat=12
split_feature=10 10 0 0 10 0 19 19 10 0 16 19 10 10 67 19 10 141 3 10 0 27 19 11 4 3 0 4 0 31
split_gain=67902.8 15812.3 11291.4 9218.68 7645.2 7100.76 2963.42 2513.02 2419.88 1998.2 1870.8 1738.94 1618.19 1298.23 1286.61 1195.96 1189.17 1069.52 1015.86 951.665 919.586 904.231 898.708 895.114 809.926 769.358 762.008 670.155 953.131 681.546
threshold=2.7395000000000005 4.7705000000000011 0 1 1.4715000000000003 2 882.55700000000013 718.4380000000001 6.6895000000000016 3 1.7515000000000001 588.58900000000028 6.6895000000000016 0.79350000000000009 3.2500000000000004 682.71400000000006 3.5535000000000001 1.8715000000000004 4 2.0825000000000005 5 11.444500000000003 783.40100000000029 6 7 8 9 10 11 1.3305000000000002
decision_type=2 2 1 1 2 1 2 2 2 1 2 2 2 2 10 2 2 8 1 2 1 2 2 5 1 1 1 1 1 2
left_child=2 3 10 14 11 8 9 16 15 24 21 13 17 -4 27 -3 -5 23 -8 -11 -9 -1 -10 -7 -6 -14 -15 -2 29 -29
right_child=1 5 4 7 6 12 18 20 22 19 -12 -13 25 26 -16 -17 -18 -19 -20 -21 -22 -23 -24 -25 -26 -27 -28 28 -30 -31
leaf_value=0.043059064842323802 0.0054672651332372795 -0.060855065797345655 0.021019495445254967 -0.02163955282111394 0.016776156186172699 -0.037444988724209836 0.0069770993724518251 -0.022095834243642545 -0.099711433256217105 -0.00035390835206522669 0.018815034036213096 0.027948776321476711 -0.025266656310592678 0.019587849122450027 0.011524214521763349 -0.038962194304410856 -0.036264412824885954 -0.032878563200013748 0.021939730187497512 -0.010606028554125358 -0.0076245288613775572 0.068784746234838698 -0.066474643881019299 -0.0095179304596995466 0.0030900759054815767 -0.050597747713184288 0.0089490638620642396 0.024960602201513488 -0.016312796475263267 -0.0036664335662159749
leaf_count=7738 5596 3837 20993 11008 5807 1211 8606 6108 1139 18368 2717 11640 1866 7984 9177 5415 9174 3888 7818 14647 11277 1462 2050 6905 11804 2835 25429 972 5141 3255
internal_value=0 -0.679653 0.422906 -0.392942 0.339311 -1.28668 0.101469 -0.70268 -1.85882 -0.0182739 1.35512 0.580821 -0.858948 0.505767 0.0893096 -1.60139 -0.942916 -0.664691 0.470569 -0.163358 -0.424198 1.57157 -2.61152 -0.458094 0.253661 -1.35681 0.383324 -0.0914423 -0.254851 0.0969826
internal_count=235867 90854 145013 61708 133096 29146 67050 37567 12441 50626 11917 66046 16705 54406 24141 9252 20182 12004 16424 33015 17385 9200 3189 8116 17611 4701 33413 14964 9368 4227
cat_boundaries=0 1 2 3 4 6 7 19 20 22 23 24 25
cat_threshold=128 452 553 324 4261675141 564223 40 218509312 0 131072 0 3464777728 134 0 0 136192 0 1948254208 7 8128 268486903 455953 68 4032 384
shrinkage=0.03


Tree=17
num_leaves=31
num_cat=14
split_feature=10 10 0 0 10 0 10 10 19 19 19 19 231 5 10 3 0 9 0 27 0 10 17 0 4 0 3 4 3 17
split_gain=64122.9 15147.5 11889.3 8556 6342 5949.71 3315.43 2640.68 2439 2239.55 2017.61 1733.39 1633.46 1293.19 1237.94 1039.9 882.959 857.946 853.357 851.26 807.752 779.976 779.525 754.878 732.571 723.983 699.599 698.348 687.834 669.939
threshold=3.4405000000000006 1.9535000000000002 0 1 5.9615000000000018 2 5.8725000000000005 1.1785000000000003 793.50699999999995 407.48150000000004 458.52050000000003 935.01800000000014 2.9500000000000006 3 4.5925000000000002 4 5 40.37850000000001 6 10.418500000000002 7 8.168000000000001 8.5665000000000031 8 9 10 11 12 13 5.2095000000000011
decision_type=2 2 1 1 2 1 2 2 2 2 2 2 10 1 2 1 1 2 1 2 1 2 2 1 1 1 1 1 1 2
left_child=1 3 6 19 8 12 15 13 14 25 16 21 27 -5 -4 -2 -9 -11 -10 24 -15 -6 -8 -13 -1 -7 -12 -3 -24 -17
right_child=2 5 4 7 11 9 22 10 18 17 26 23 -14 20 -16 29 -18 -19 -20 -21 -22 -23 28 -25 -26 -27 -28 -29 -30 -31
leaf_value=0.050776000635905219 -0.011732794766292097 0.012686425429537187 -0.032559845252859959 0.030156057062820152 -0.071577733977189209 -0.023186771137184065 -0.0024979982190125507 0.011449839928649154 -0.031344842114409452 0.0031502116806668072 0.025696951058042816 -0.035684133200988413 0.019362639150425902 0.0096269880967142004 -0.050401515668673506 0.017498213057289491 0.00097440840687171423 -0.008729087660476427 -0.016260495572802167 0.066817665178300387 0.019419231850132158 -0.11129312280286104 -0.049232692796435412 -0.061188438816603213 0.031046310771135496 -0.011324626667968834 0.01267289717957305 -0.00023614732306964732 -0.025788629729510494 -0.001512857151683052
leaf_count=3660 8882 5594 9992 7957 2531 7374 821 11259 5342 12869 6240 2123 9826 10329 5387 2064 20285 9519 9440 1412 29269 540 1769 2343 3451 12664 9363 11469 3392 8701
internal_value=0 0.31414 -0.862384 0.556939 -1.21957 -0.0474406 -0.336394 0.470393 -1.01485 -0.280651 0.302736 -2.04039 0.320509 0.63671 -1.29365 -0.138062 0.157245 -0.0633555 -0.724799 1.51625 0.562268 -2.61871 -0.988347 -1.64271 1.37721 -0.523571 0.59687 0.133591 -1.13232 0.0710068
internal_count=235867 172540 63327 103225 37698 69315 25629 94702 30161 42426 47147 7537 26889 47555 15379 19647 31544 22388 14782 8523 39598 3071 5982 4466 7111 20038 15603 17063 5161 10765
cat_boundaries=0 1 2 3 4 6 7 8 9 10 11 12 14 15 17
cat_threshold=452 128 452 4261412976 4293001344 37886 324 40 552 19 65280 40 32766586 483328 4064 2877424908 852222
shrinkage=0.03


Tree=18
num_leaves=31
num_cat=15
split_feature=10 0 0 10 10 10 0 10 5 19 19 19 125 10 231 10 3 11 27 22 0 0 5 11 0 0 5 5 0 218
split_gain=59627.5 13509.9 10454.7 9777.06 7632.46 4329.89 2952.17 2744.41 2445.19 2187.14 1833.78 1814.59 1765.3 1463.81 1262.83 1204.58 1038.5 1026.26 908.077 896.325 892.546 874.035 833.263 828.917 814.699 798.727 775.053 752.444 742 674.927
threshold=2.8415000000000004 0 1 4.6805000000000012 1.5555000000000001 5.033500000000001 2 7.2385000000000002 3 511.56450000000001 1111.6110000000001 682.71400000000006 38.071500000000007 0.79350000000000009 3.7500000000000004 7.2385000000000002 4 5 13.910500000000001 -8.7524999999999995 6 7 8 9 10 11 12 13 14 10.864000000000003
decision_type=2 1 1 2 2 2 1 2 1 2 2 2 8 2 10 2 1 5 2 8 1 1 1 5 1 1 1 1 1 8
left_child=2 5 12 9 10 14 -6 11 16 25 13 -5 18 -4 23 17 -8 -7 -1 -10 -13 -11 -9 -2 26 -3 -15 -25 -29 -17
right_child=1 3 4 7 6 15 8 22 19 21 -12 20 -14 24 -16 29 -18 -19 -20 -21 -22 -23 -24 27 -26 -27 -28 28 -30 -31
leaf_value=0.04259565030428332 0.017225506178079556 -0.037395935673720675 0.02061260408819874 -0.055607579542054142 -0.010719717077299355 -0.039363331721670732 0.0064423622876439478 -0.060450724512486995 0.013526891990449531 -0.022006046137531387 0.031759849526585365 -0.046751372601636906 0.019880002987561388 0.012335330848956784 0.011884760862152937 -0.061679701778276627 0.019854118466833 -0.010690069535572394 0.080175799188844293 -0.0021074839196556414 -0.027399063360389699 -0.0085291059334654945 -0.096828416525038236 0.0021692983595895834 0.0088909062606152053 -0.022942346678411159 0.03000510347031023 -0.00068185870606981137 -0.018978960160169887 -0.028632860822621082
leaf_count=8137 1646 5772 22703 5792 13533 1360 10725 1685 3742 6683 6030 3416 3430 6179 7502 837 10131 6423 623 27956 6199 12419 1047 6892 32630 8984 3542 3452 4739 1658
internal_value=0 -0.660715 0.382599 -0.982588 0.303644 -0.175392 0.0590247 -1.57521 0.166274 -0.665388 0.531109 -1.41141 1.26978 0.482209 0.0552539 -0.719323 0.432121 -0.525491 1.50894 -0.0087246 -1.14505 -0.442004 -2.49892 -0.0976224 0.372381 -0.954565 0.626594 -0.171203 -0.375937 -1.32397
internal_count=235867 86506 149361 51997 137171 34509 66087 18139 52554 33858 71084 15407 12190 65054 24231 10278 20856 7783 8760 31698 9615 19102 2732 16729 42351 14756 9721 15083 8191 2495
cat_boundaries=0 1 2 3 5 7 19 20 21 22 33 34 35 37 38 39
cat_threshold=452 128 40 4261413360 1 4161011717 835583 1332736 0 786432 0 2113929216 33554439 0 65536 3072 0 4129292288 6 40 40 1069613168 0 16777216 0 16 8192 0 9961472 0 100663296 1777582872 1049811 68 40 8387584 24 4227860464 384
shrinkage=0.03


Tree=19
num_leaves=31
num_cat=6
split_feature=0 16 13 12 13 13 12 6 13 16 0 12 12 4 13 12 0 27 13 12 12 12 13 13 3 4 16 12 13 13
split_gain=22242.7 13101.9 12499.9 9011.3 8524.93 7107.55 4679.32 5162.16 6230.82 2399.67 2365.45 2344.36 2346.66 2149.26 2447.17 1927.62 1709.49 1650.96 1165.4 1163.5 1135.76 1096.2 1058.41 1038.02 1035.19 1025.32 947.72 938.624 934.181 850.649
threshold=0 -24.125499999999999 -3.5430255999999996 -2.01710345 -2.8151159499999996 2.0583115000000007 3.5846569000000001 955.6735000000001 2.2301643000000007 -47.741499999999995 1 3.7901393500000005 -1.8906562999999996 2 2.0915315500000005 1.5877815000000004 3 10.418500000000002 3.7215192500000005 6.2854111000000001 -1.0869097999999997 6.2854111000000001 2.8805611000000009 -5.3677858499999997 4 5 10.781500000000003 -3.3712041499999996 -0.94429224499999986 -5.3677858499999997
decision_type=1 2 2 2 2 2 2 2 2 2 1 2 2 1 2 2 1 2 2 2 2 2 2 2 1 1 2 2 2 2
left_child=1 9 10 27 23 11 7 8 17 -1 19 12 -6 16 15 20 24 26 -7 -2 -15 -8 -18 -3 -9 -14 -5 -4 -22 -12
right_child=2 4 3 6 5 18 21 13 -10 -11 29 -13 25 14 -16 -17 22 -19 -20 -21 28 -23 -24 -25 -26 -27 -28 -29 -30 -31
leaf_value=-0.064770574149350391 0.0014369023430153265 -0.06433096997476595 -0.029848659840741611 0.037172763068687602 -0.014048793794217192 -0.016509311651296404 -0.0076174241322222629 0.031864147216094568 -0.0092110979771068725 -0.033329455857068764 -0.055362214851043604 -0.033380899195267238 0.012563961927016254 0.0037972656240496962 -0.0085553138221325549 -0.0037607769344777235 0.012809297642143653 0.058223974181910693 -0.033984986110729525 -0.037727084422511811 0.0048473381570173883 -0.044255462260782662 -0.0131099959107106 -0.034259868175573402 0.017118450337388669 0.0018729495880309471 0.015592446851925316 -0.0094569220318018298 0.016498140823435606 -0.029997714352534371
leaf_count=2897 3145 1293 2471 8547 7357 11374 5600 8077 3102 8886 1635 1765 10234 11363 6935 7751 8520 2843 4920 872 7505 846 1701 5140 9346 38162 2331 11423 35454 4372
internal_value=0 -0.38395 0.245569 0.326269 -0.239406 -0.143183 0.414599 0.461679 0.972913 -1.36866 -0.831492 0.0219787 0.0578997 0.372695 0.278175 0.341159 0.608328 1.26228 -0.726204 -0.234906 0.407725 -0.414198 0.282915 -1.34347 0.798955 0.13789 1.08495 -0.436117 0.482091 -1.22801
internal_count=235867 92028 143839 133815 80245 73812 119921 113475 16823 11783 10024 57518 55753 96652 69008 62073 27644 13721 16294 4017 54322 6446 10221 6433 17423 48396 10878 13894 42959 6007
cat_boundaries=0 1 2 3 4 6 7
cat_threshold=553 384 2016 324 133955430 16388 1008
shrinkage=0.03


Tree=20
num_leaves=31
num_cat=7
split_feature=0 16 13 12 13 13 12 6 16 16 0 12 12 16 30 25 31 4 13 13 12 0 13 12 3 13 0 4 13 13
split_gain=20928.3 12327.6 11761.2 8483.89 8021.13 6687.54 4440.99 4912.07 4554.4 2257.85 2225.65 2205.81 2207.99 2130.84 2140.13 1820.76 1572.53 1308.87 1195.5 1096.53 1094.74 1010.4 976.67 929.377 889.151 866.242 1357.86 863.876 837.612 800.376
threshold=0 -24.125499999999999 -3.5430255999999996 -1.9855696499999997 -2.8151159499999996 2.0583115000000007 4.0188785000000005 961.85950000000014 5.7605000000000013 -47.741499999999995 1 3.7901393500000005 -1.8906562999999996 -22.609499999999997 2.6765000000000003 4.5855000000000006 1.9435000000000002 2 2.2301643000000007 3.7215192500000005 6.2854111000000001 3 -5.3677858499999997 -3.3712041499999996 4 3.2544711000000004 5 6 1.6454212500000003 -5.3677858499999997
decision_type=1 2 2 2 2 2 2 2 2 2 1 2 2 2 2 2 2 1 2 2 2 1 2 2 1 2 1 1 2 2
left_child=1 9 10 23 22 11 7 8 16 -1 20 12 -6 -9 17 -16 -5 -15 -10 -7 -2 -14 -3 -4 -8 -25 -27 -23 -19 -12
right_child=2 4 3 6 5 19 24 13 18 -11 29 -13 21 14 15 -17 -18 28 -20 -21 -22 27 -24 25 -26 26 -28 -29 -30 -31
leaf_value=-0.062827456841770213 0.0013937952295098408 -0.062401040734449326 -0.028953200092807545 0.048295665536260392 -0.013627330006847052 -0.016014032279322431 -0.0013449614183797302 -0.0072275091618355112 0.016057384327916105 -0.032329572163500075 -0.05370134839432425 -0.032379472327363219 -0.00055936063721595606 0.022324709906493552 0.012027058268020922 -0.00040913818109473407 0.027908641731123549 0.013779774142792323 -0.011644962146831701 -0.032965436532942968 -0.036595271984627899 0.01685239611620561 -0.033232072179111422 -0.0048416497132159897 -0.027111880549825107 0.014524645487107754 -0.038669486287044794 0.0046216743498133876 -0.0033168315992992757 -0.029097782878406215
leaf_count=2897 3145 1293 2471 5581 7357 11374 2156 5757 3276 8886 1635 1765 22917 18510 25585 18085 8734 23568 2451 4920 872 7281 5140 9716 2746 575 1708 18198 2896 4372
internal_value=0 -0.37243 0.238205 0.316485 -0.232222 -0.138885 0.40416 0.444084 0.893714 -1.3276 -0.806547 0.0213219 0.0561653 0.348624 0.386912 0.229229 1.19523 0.540023 0.140051 -0.704418 -0.227859 0.133756 -1.30316 -0.406639 -0.527904 -0.291632 -0.845923 0.270734 0.396812 -1.19117
internal_count=235867 92028 143839 133815 80245 73812 119345 114443 20042 11783 10024 57518 55753 94401 88644 43670 14315 44974 5727 16294 4017 48396 6433 14470 4902 11999 2283 25479 26464 6007
cat_boundaries=0 1 2 3 4 6 7 8
cat_threshold=553 384 8160 40 2176763 423956 64 2032
shrinkage=0.03


Tree=21
num_leaves=31
num_cat=12
split_feature=10 10 0 0 10 0 10 19 19 10 19 231 10 19 17 30 5 117 13 0 0 3 0 3 10 3 27 4 31 0
split_gain=50800.1 12695.7 9697.73 6419.75 5336.08 5295.38 2583.79 2141.81 2132.7 2172.41 1972.26 1543.61 1496.82 1222.85 1051.17 1382.5 1324.03 1625.34 1608.49 949.282 835.62 767.71 758.01 729.108 685.094 679.719 674.5 666.638 632.257 629.159
threshold=3.4965000000000006 1.8615000000000002 0 1 5.9615000000000018 2 6.1675000000000013 458.52050000000003 1166.2400000000002 1.0955000000000001 793.50699999999995 2.9500000000000006 8.7075000000000014 729.70850000000007 5.3625000000000016 1.1995000000000002 3 938.41650000000016 2.4138326000000006 4 5 6 7 8 2.5675000000000003 9 11.444500000000003 10 2.1495000000000002 11
decision_type=2 2 1 1 2 1 2 2 2 2 2 10 2 2 2 2 1 8 2 1 1 1 1 1 2 1 2 1 2 1
left_child=1 3 6 26 10 11 14 24 9 29 19 27 13 -6 15 -2 17 -16 -19 -4 -11 -8 -9 -12 -7 -20 -1 -3 -15 -5
right_child=2 5 4 8 12 7 21 22 -10 20 23 -13 -14 28 16 -17 -18 18 25 -21 -22 -23 -24 -25 -26 -27 -28 -29 -30 -31
leaf_value=0.038106935490377261 0.024735757978385738 0.013529190775312321 -0.044606692048613804 0.02031830676707088 -0.070107307130002058 -0.0088978815933253054 -0.014361945470084035 -0.013449068872964515 0.027712015209539299 0.012669802700050019 -0.012528630206427882 0.018092069592446594 -0.093980285119237589 -0.031883803513476403 -0.019863943962129361 -0.018704636595588169 -0.016355714999447366 -0.0087439508541108085 0.030687479625294958 -0.028830704200834025 0.0037510852035290867 -0.03833788419372846 0.001655208189450987 -0.0260931042503675 -0.01912583262025281 0.0041575476211581589 0.065085528422906255 0.00062209439855345717 -0.054137776429043473 0.012727108296481783
leaf_count=6992 2203 4807 5883 20641 2096 13165 2126 3520 8202 14543 6954 10746 823 2416 2539 941 7662 2830 2414 8807 27075 2888 19551 7477 10672 1376 947 14290 2191 19090
internal_value=0 0.274748 -0.781604 0.514253 -1.10903 -0.0294744 -0.300667 -0.238962 0.437674 0.388721 -0.915349 0.299784 -1.85994 -1.70368 -0.139612 0.391135 -0.238813 0.018064 0.27897 -1.17329 0.229053 -0.942563 -0.0218134 -0.652781 -0.449234 0.704915 1.37577 0.12928 -1.41558 0.555973
internal_count=235867 174241 61626 97490 36647 76751 24979 46908 89551 81349 29121 29843 7526 6703 19965 3144 16821 9159 6620 14690 41618 5014 23071 14431 23837 3790 7939 19097 4607 39731
cat_boundaries=0 1 2 3 4 5 6 8 9 11 13 14 15
cat_threshold=452 128 452 4160750576 40 324 1348524275 261633 8 2719487 488960 134217504 16512 2016 340
shrinkage=0.03


Tree=22
num_leaves=31
num_cat=10
split_feature=13 13 0 0 0 117 12 12 13 16 4 16 13 0 4 4 12 207 19 13 12 34 27 3 0 12 3 12 13 13
split_gain=18957.6 17666.7 11286.5 9314.87 4742.29 4492.4 4482.9 4960 4029.76 3527.02 2761.77 2379.88 2216.62 1842.01 1582.5 1404.39 1229.93 1178.26 1173.73 1057.52 1023.32 1002.11 945.233 932.599 916.121 909.964 853.164 818.906 801.221 943.018
threshold=-3.2395078999999996 2.2651758000000002 0 1 2 948.55850000000009 -2.3314696999999995 2.9251927500000008 4.1731725000000006 11.571000000000002 3 -22.121499999999994 -5.3677858499999997 4 5 6 6.2854111000000001 1.6185000000000003 865.68500000000006 -1.0779908999999999 -1.3046971999999999 1.9485000000000003 11.768500000000001 7 8 1.2178247000000002 9 -4.3678174999999992 1.2140946500000001 -1.4583406499999998
decision_type=2 2 1 1 1 8 2 2 2 2 1 2 2 1 1 1 2 8 2 2 2 2 2 1 1 2 1 2 2 2
left_child=4 2 5 10 16 9 27 13 14 22 21 -7 -6 28 -5 19 -1 -10 20 -13 -15 -3 -2 -14 -16 -22 -21 -4 29 -8
right_child=1 3 6 8 12 11 7 -9 17 -11 -12 15 23 18 24 -17 -18 -19 -20 26 25 -23 -24 -25 -26 -27 -28 -29 -30 -31
leaf_value=0.0038634934025436776 0.033438996747866032 0.026771096513001323 -0.044409253479616675 -0.011097273096920334 -0.058947133943389379 -0.010086641875524615 -0.012564006921858772 -0.021381273765406997 -0.063178358953279334 0.0031466817981958342 -0.0080091320804043485 0.0061584429101108297 -0.040567098473900574 -0.003076651086162497 -0.013184678409520935 0.0094324320579158953 -0.035290181065767492 -0.036047980956051578 0.015745569124088518 0.031065135583454386 0.0095655224288097532 -0.0046501424677153833 0.054427935943932831 -0.022412462167067004 -0.033737937409352194 -0.0023487056185820749 0.017253321943355462 -0.016040575599257572 -0.011407016757390904 0.0039735389415758819
leaf_count=3922 9833 5139 1023 13333 3420 4127 3869 7321 1968 3432 5478 4249 4962 10661 2889 30214 885 5377 11636 6871 31927 1111 2403 5463 6307 7042 10013 8739 6573 15680
internal_value=0 0.0818597 0.220667 -0.504082 -0.968692 0.527842 0.0114372 0.0779435 -0.800407 1.00076 0.251196 0.394368 -1.2654 0.144181 -0.590965 0.453089 -0.111267 -1.44391 0.238959 0.650895 0.171978 0.70506 1.25203 -1.03713 -0.910077 0.247084 0.763423 -0.633782 -0.0781716 0.0233515
internal_count=235867 217215 175613 41602 18652 71142 104471 94709 29874 15668 11728 55474 13845 87388 22529 51347 4807 7345 61266 21133 49630 6250 12236 10425 9196 38969 16884 9762 26122 19549
cat_boundaries=0 1 2 3 4 5 6 7 9 10 12
cat_threshold=452 324 384 1984 40 4080 8176 4292280576 66047 147 134086386 4
shrinkage=0.03


Tree=23
num_leaves=31
num_cat=19
split_feature=10 10 0 0 0 10 10 0 5 10 4 67 0 10 3 0 17 5 35 30 11 5 5 149 0 0 232 3 3 5
split_gain=45585.7 12238.7 8079.28 5858.84 4989.21 4614.91 2150.39 2011.24 1943.94 1833.55 1779.62 1480.32 1297.22 1100.19 1093.16 1032.51 1015.74 1174.34 1477.91 1120.08 1049.84 924.858 915.723 739.04 738.798 713.24 691.192 670.425 640.966 610.933
threshold=3.6095000000000002 1.8925000000000003 0 1 2 6.5375000000000005 6.4045000000000014 3 4 0.97050000000000003 5 3.8500000000000001 6 9.5260000000000016 7 8 5.6795 9 935.80450000000008 1.1995000000000002 10 11 12 2.9500000000000006 13 14 15 16 17 18
decision_type=2 2 1 1 1 2 2 1 1 2 1 10 1 2 1 1 2 1 8 2 5 1 1 10 1 1 5 1 1 1
left_child=1 3 6 27 11 7 16 21 12 -10 25 23 28 22 -9 -12 19 18 -18 -2 -20 -4 -7 -3 -11 -6 -8 -1 -5 -16
right_child=2 4 5 8 10 13 26 14 9 24 15 -13 -14 -15 29 -17 17 -19 20 -21 -22 -23 -24 -25 -26 -27 -28 -29 -30 -31
leaf_value=0.029061109948461578 0.022220138589477478 0.00096086446083724073 -0.02856330305786927 0.039072416570540218 -0.013097285947216354 -0.043422500218404499 0.0082233399501176058 -0.013199973511303817 0.015822097799913015 -0.00038426330696449487 -0.018883426753164501 0.020388331575779212 0.013254447923262271 -0.10782392723456949 -0.020260081327927584 -0.0075699953142824468 -0.021284646459273263 -0.017274129591114757 0.029975759300756466 -0.018979162166162248 0.00023815755195131014 -0.046039871777937044 -0.071781449555899671 0.012384715678916497 0.008439494190628621 0.0042027056887458296 -0.032691843266782261 0.046822690831212189 0.022707263001295077 -0.035063859924990622
leaf_count=3626 2147 16158 5300 3312 2585 2710 413 7839 28213 11936 10809 6869 11182 387 4870 22246 2396 7223 1325 821 5363 6000 1837 7445 30055 12356 3875 4478 6622 5469
internal_value=0 0.249788 -0.771268 0.482806 -0.045461 -1.0801 -0.319644 -0.930594 0.410332 0.330196 -0.246354 0.270955 0.676476 -1.97553 -0.72317 -0.375803 -0.177293 -0.275228 -0.0355573 0.36079 0.205828 -1.26251 -1.83777 0.152141 0.197775 0.0400936 -0.960272 1.29737 0.939907 -0.937237
internal_count=235867 177892 57975 99424 78468 34412 23563 29478 91320 70204 47996 30472 21116 4934 18178 33055 19275 16307 9084 2968 6688 11300 4547 23603 41991 14941 4288 8104 9934 10339
cat_boundaries=0 1 2 3 4 6 7 8 10 11 12 22 23 24 25 26 38 40 42 43
cat_threshold=452 128 452 40 4261412976 1 1008 836 2749051 517120 40 4160758768 0 0 0 0 128 4184063 1094189184 4194320 0 8 2130706672 2130706672 552 8 0 0 0 0 142647360 1031 0 8192 674271490 16448 17043504 2 4264296460 33401 133954480 16388 2113929712
shrinkage=0.03


Tree=24
num_leaves=31
num_cat=13
split_feature=10 10 0 0 0 10 19 19 10 10 16 19 0 4 3 3 30 3 11 232 3 10 10 5 228 27 5 10 14 118
split_gain=43027.7 11525.5 7189.13 5952.51 5080.87 4782.61 2372.66 1914.02 1836.28 1271.19 1194.66 1179.75 1123.72 1066.97 1049.84 971.773 928.921 823.073 816.429 769.732 757.177 699.903 695.272 683.247 675.972 965.874 877.467 643.004 596.302 575.003
threshold=2.6045000000000003 4.6375000000000002 0 1 2 1.2475000000000003 444.67950000000008 511.56450000000001 7.2385000000000002 6.6895000000000016 -0.33049999999999996 458.52050000000003 3 4 5 6 1.0785000000000002 7 8 9 10 0.57850000000000013 3.7265000000000001 11 971.6500000000002 13.434500000000002 12 2.0345000000000009 123.22350000000002 14.798500000000002
decision_type=2 2 1 1 1 2 2 2 2 2 2 2 1 1 1 1 2 1 5 5 1 2 2 1 10 2 1 2 2 8
left_child=2 3 10 14 8 11 12 22 13 16 20 21 23 -3 24 -8 18 -9 -6 -11 -1 -4 -5 -7 25 -2 -26 -14 -18 -21
right_child=1 4 5 7 9 6 15 17 -10 19 -12 -13 27 -15 -16 -17 28 -19 -20 29 -22 -23 -24 -25 26 -27 -28 -29 -30 -31
leaf_value=0.052640310841155377 0.012212807045420973 -0.03082822349817714 0.019908530461668402 -0.018780522622224745 -0.028330950956361227 0.00069249578504513892 0.0048706090064725063 -0.0037302745377855162 -0.070206721918937093 0.0020993509931006254 0.01624150341705418 0.024614156706437382 -0.00075557636615898073 -0.049416166961625846 -0.0029752718416698859 0.015805741619657587 -0.035864794535202603 -0.015360647995096002 -0.0037743484629022481 -0.02792119051132699 0.032981876506366109 0.011053658033591308 -0.031685548232878107 0.013188043319085073 0.01577797257533416 0.049129741018164468 -0.0036907546154079031 -0.010120247914837259 -0.015986684181682052 -0.050249932432548779
leaf_count=2668 3604 6274 10925 12757 1496 9391 14232 11266 2048 510 2676 10607 19683 5269 12736 15104 2363 10687 6438 2486 5898 30356 5326 6781 3513 775 5095 9927 3194 1782
internal_value=0 -0.509757 0.357427 -0.270586 -1.00341 0.289496 0.128238 -0.511675 -1.4665 -0.65773 1.12362 0.523003 -0.014027 -1.31275 0.10481 0.350258 -0.501108 -0.313359 -0.281503 -1.10134 1.30682 0.44657 -0.752715 0.197895 0.304775 0.62488 0.142288 -0.129795 -0.814648 -1.23857
internal_count=235867 97619 138248 65759 31860 127006 75118 40036 13591 18269 11242 51888 45782 11543 25723 29336 13491 21953 7934 4778 8566 41281 18083 16172 12987 4379 8608 29610 5557 4268
cat_boundaries=0 1 2 3 4 5 7 9 11 23 35 37 39 40
cat_threshold=128 452 553 324 2040 3670010 486400 4194567172 540671 3931899 517120 18432 0 0 0 4206891008 1048619 2 32768 2147502080 0 4229955584 7 16384 0 0 67108864 738332672 16777280 67109632 8208 673222914 3162752 1090523408 2 1309489 1001472 71301136 24 4227858928
shrinkage=0.03


Tree=25
num_leaves=31
num_cat=17
split_feature=10 0 10 10 0 0 10 10 149 4 0 5 5 157 10 0 238 10 17 3 0 232 3 0 9 11 3 30 11 150
split_gain=40637 8477.42 8290.29 5376.17 4705.61 3862.46 2708.38 1825.82 1606.06 1489.14 1481.49 1475.86 1418.83 1023.18 1010.7 1008.03 855.557 848.306 845.294 748.609 732.195 695.883 639.498 636.813 615.165 606.157 601.033 605.416 571.65 526.61
threshold=3.1345000000000005 0 1.5695000000000003 4.9235000000000015 1 2 5.8725000000000005 8.168000000000001 2.5500000000000003 3 4 5 6 1.4844999999999999 0.71750000000000014 7 3.7415000000000025 2.2625000000000006 8.0495000000000019 8 9 10 11 12 37.414500000000011 13 14 0.71350000000000013 15 16
decision_type=2 1 2 2 1 1 2 2 10 1 1 1 1 10 2 1 10 2 2 1 1 5 1 1 2 5 1 2 5 5
left_child=2 6 4 11 -1 8 13 10 -4 24 -5 23 15 16 -14 22 28 -11 -8 -12 -13 -20 -6 -3 -7 -23 -10 -28 -2 -15
right_child=1 3 5 7 12 9 18 -9 26 17 19 20 14 29 -16 -17 -18 -19 21 -21 -22 25 -24 -25 -26 -27 27 -29 -30 -31
leaf_value=0.040093153028341037 -0.020733492305323228 -0.019599365735409997 0.0041451205373148822 -0.050314734126608564 0.038573509743620678 0.01140287955433286 0.0054637531784419479 -0.075937062132156466 0.010919322648493435 -0.0022741412555445854 -0.021209209921661382 -0.03285613936522902 0.017065249872038047 0.035620308148216082 0.0077668548547410671 0.013459571906280618 -0.012105323725462127 -0.011482319340906037 0.0045733916366783285 -0.038968454396687953 -0.01992037471257822 -0.00077147130761960777 0.021732856129225517 -0.0053719307800623025 -0.0010773958680694964 -0.035565773097781396 0.031622809028962522 0.014330518658625342 0.0029646332664206281 0.0067577157280888905
leaf_count=6383 999 4654 18664 5427 2903 6736 768 1237 6460 19014 4356 6338 14885 648 35883 11131 8039 17104 530 4400 10885 515 7254 7273 7526 4245 3912 3411 9943 4344
internal_value=0 -0.611709 0.280879 -0.888354 0.513866 0.0602338 -0.200768 -1.36607 0.329259 -0.113073 -1.26445 -0.63595 0.440753 -0.0498707 0.349702 0.657629 -0.155819 -0.221097 -0.798237 -1.00559 -0.823233 -0.940566 0.885978 -0.364512 0.160457 -1.06036 0.588256 0.784535 0.0261588 0.352973
internal_count=235867 74601 161266 44570 78439 82827 30031 15420 32447 50380 14183 29150 72056 23973 50768 21288 18981 36118 6058 8756 17223 5290 10157 11927 14262 4760 13783 7323 10942 4992
cat_boundaries=0 1 2 3 4 5 6 8 9 11 12 24 26 27 38 40 52 63
cat_threshold=452 128 452 1008 40 2113929456 4278190320 3 836 2732799 490496 40 0 1048576 0 201326592 746595328 20971532 262400 2684363264 2129922 1075856064 16777472 10 133954224 16384 40 354549760 0 0 0 2147483648 8192 33545356 0 0 1050 32768 4215800965 820159 411043840 67112960 136839168 3221225472 134217736 0 0 2155905024 4048 2080 4160749568 2 0 0 0 0 2819129344 271663269 4 0 0 751342848 553
shrinkage=0.03


Tree=26
num_leaves=31
num_cat=4
split_feature=10 10 146 10 231 67 10 228 4 19 19 16 19 67 10 19 146 22 31 231 10 31 149 146 1 2 10 1 27 19
split_gain=38303.9 10910.4 5366.15 4764.99 3437.49 3012.8 2124.62 1706.78 1978.65 1689.85 1410.11 1391.49 1194.14 1106.1 1019.5 988.008 919.08 856.688 829.473 815.549 798.687 752.091 656.917 598.217 584.249 581.305 555.397 551.534 520.021 517.974
threshold=3.6955000000000005 2.0495000000000005 950.35000000000002 5.8725000000000005 2.4500000000000006 2.6500000000000008 1.1785000000000003 948.45000000000016 0 935.01800000000014 291.17000000000013 78.423500000000004 451.85350000000011 3.8500000000000001 8.7075000000000014 458.52050000000003 885.25000000000011 -8.5444999999999975 2.1495000000000002 3.8500000000000001 8.168000000000001 2.7855000000000003 1.9500000000000002 888.6500000000002 1 2 0.56050000000000011 3 16.502500000000001 1600.2190000000003
decision_type=2 2 8 2 10 10 2 8 1 2 2 2 2 10 2 2 8 10 2 10 2 2 10 8 1 1 2 1 2 2
left_child=1 2 21 5 10 12 15 11 14 22 23 25 16 -6 27 26 -2 -12 -14 -7 -10 -1 -8 -3 -11 -5 -4 -9 -21 -19
right_child=3 4 6 7 13 19 9 8 20 24 17 -13 18 -15 -16 -17 -18 29 -20 28 -22 -23 -24 -25 -26 -27 -28 -29 -30 -31
leaf_value=0.043668725061662091 0.0077131422724557724 0.015756477028773284 0.01906944378589152 0.035606918529101264 0.0031878956199190003 -0.011314801602946799 0.0015377885078231175 -0.044813791750260644 -0.053935840787665772 0.010094020665962766 0.0099994912033926561 -0.040658724161091245 -0.010035687107835346 0.018192263282338257 -0.070513272109629974 0.023948477777370532 -0.034538332978073356 -0.0069538097004765674 -0.023806759746976176 0.00075502504901751562 -0.091561468912988997 0.026260914423933125 0.0096281984373808565 -0.014393197249821122 0.025241491098655745 -0.009047061230667168 0.010894627032964236 -0.023368463063490805 0.040858220413363386 0.0045367066977495662
leaf_count=4446 491 612 10235 301 18416 10608 30031 1473 3532 4409 3996 1470 6449 5819 578 9419 8229 20464 10104 4998 593 4489 12918 18393 4875 1670 27786 4487 309 4267
